0.28042717381701865
-0.06352037914091363
0.18536256726391526
0.3846574137610258
0.08852028307323319
0.009994376090910423
0.3027528293426446
-0.01726968217193012
0.15142217863200083
0.21031145693980693
-0.2271997399596972
-0.15372020387469715
0.7787798680692946
0.3339010264113375
-0.030950301531267543
0.24928324065157334
-0.15525717711787781
0.23851334104726185
0.4025104772352875
0.10365752864202298
-0.005175772491131427
0.2776428547956819
-0.06913487702803309
0.18913932415424203
0.37304796463497975
0.08035040851470884
0.02690972440813948
0.258525842960053
-0.11202942592493013
0.21603405774443593
0.2792299016723609
-0.2174686381107966
-0.22010550211828805
0.20047238639416173
-0.2259241749054682
-0.14504001206519126
0.37993732508003436
-0.20427865983751634
-0.31692608370665365
0.41626593850667143
0.11555152688758558
-0.01243337820953159
0.30660832928149473
-0.008846776202304533
0.14531693387915878
0.5255298774381411
0.20311783337182177
-0.0321628001553097
0.3865774599235281
0.06059317759315071
0.3089024827015332
0.7954466650180504
-0.9101699949260043
0.561074742051462
0.011270688205605596
0.39555362683618195
0.09146038222154133
0.4644937416405262
0.8378262793235609
0.7847332576019871
0.9147548962342514
-0.02687750721369486
0.294710450922406
-0.3228404366601226
-0.0019257207016972545
0.3944613765848379
0.07689561923971776
0.3187643795952982
0.7991447942574379
-0.8799832433724432
0.5649517975567725
0.028376576559948737
0.4032199170852113
0.1071481467362519
0.47044714124628045
0.8390737353350537
0.7888067422078417
0.9115246304534872
-0.009199600906407814
0.3049439213469572
-0.3010101764039403
-0.0004615976531276127
0.38834726551697113
0.0643093848296419
0.3111293811410338
0.7962903981819797
-0.9033234064844605
0.5619206324720744
0.015169852148688268
0.3972731778186505
0.09503554217336811
0.4658176187940393
0.838092819119993
0.7856646360095965
0.9139734549878804
-0.022848690785967032
0.29702326686573205
-0.31787447624316695
-0.0019099380607503743
0.37825161480412867
0.042460743621130455
0.29827791940461856
0.7913237163054121
-0.943304322000864
0.5573623706681521
-0.007752516704315597
0.38747980895695155
0.07402711821096351
0.45840629736576377
0.8367285798032091
0.7801603937845534
0.9191043194988364
-0.046526522140744805
0.28365296486330804
-0.34697867923694065
0.0032792362019451082
0.44319981381225043
0.17794793567151732
0.37965231335957117
0.8135513416264228
-0.6644508878951016
0.5897211282422136
0.13635852439547796
0.45060088112547453
0.20365369902514457
0.5075744116952944
0.8442892965998635
0.8047568527310632
0.9006687595829843
0.1040986995988967
0.36811099781391937
-0.14959879179746347
0.4121959227470448
0.3829144822414714
0.05272251989585755
0.30425287239521204
0.793653885743164
-0.9245963491503073
0.5593960462986909
0.0030131727271900223
0.39199890994156233
0.08389150260537134
0.46179202134607006
0.8373142629240282
0.7827484947531675
0.9165510494050687
-0.035407714213078464
0.28987510542449324
-0.33333253662188883
-0.00011070024291177658
0.39578080595650267
0.07956836753454803
0.32040212902448023
0.799748487528765
-0.8750006317818145
0.5656237402040756
0.031181160728806497
0.40450427491259106
0.10972109085461836
0.4714555424981329
0.8392943134489474
0.7894699519287662
0.9110377023470496
-0.0063005869599718056
0.3066414064220072
-0.29742187436376116
-0.0014633456337041829
0.3863690338213848
0.06015848457763342
0.308641007088717
0.7953483036142714
-0.9109714890505145
0.5609735797047894
0.010814366798671383
0.3953510336416429
0.0910422440980628
0.46433698986475674
0.8377953066075867
0.7846246542057049
0.9148448861244373
-0.027349186552329836
0.29443900261773776
-0.3234231942626023
-0.002023351305227132
0.3936419660821152
0.07523573416738515
0.31774732308940506
0.7987692719264664
-0.8830773362692768
0.5645343669200381
0.026634721061465694
0.4024222861682293
0.1055502912636144
0.46982083151106124
0.838936351753857
0.788394268664886
0.9118270021820182
-0.011000175221389661
0.30388977242485055
-0.3032394060458147
-0.000821329709483133
0.3849759154237093
0.057133015948380814
0.30686514368048984
0.7946587081577026
-0.9165047736452179
0.560348020734524
0.0076409897107465805
0.3939998339426206
0.0881329772734118
0.4633165184580116
0.837606853451589
0.7838600887789762
0.9155586298316737
-0.030626590266011854
0.29259103133076353
-0.32744713557459604
-0.0003029876008172784
0.37752331807641343
0.04081954169334021
0.2973357868531435
0.7909539051057346
-0.9462770184388415
0.5570612903408279
-0.009474355441592827
0.3867749384035841
0.07245012418500295
0.45788598838740946
0.83664831479726
0.7797479645452018
0.9195404356026535
-0.04830440109142532
0.2826705419474645
-0.3491557491268105
0.003634865527736435
0.3784539253065763
0.04290625487934983
0.29853700150293827
0.7914250659285291
-0.9424884820564285
0.5574500180193628
-0.007285279215584921
0.3876758488227676
0.07445541108356303
0.4585528516801336
0.8367538437833302
0.7802729821244807
0.9189936364618712
-0.04604400748422015
0.2839227772720867
-0.34638642646372525
0.0031590864683006996
0.37620717806046294
0.037851887652431235
0.29563317847024645
0.7902879088445434
-0.9516447607846822
0.5565176356499568
-0.012588864563542905
0.38550110566049933
0.06959906721154942
0.456945475769225
0.8365096719559684
0.7790050281430893
0.9203379487257501
-0.05152110277209418
0.28089511034491965
-0.3530991854152501
0.0040152576664725294
0.3968370773131538
0.08171766469415792
0.3217158369301002
0.8002235560310034
-0.8709704299783507
0.5661563043631092
0.033435461243157966
0.4055322385389867
0.11179037386921523
0.4722600863186122
0.8394602406223566
0.7899932782721301
0.9106292853903157
-0.003971214803408956
0.3080034372537979
-0.29454866639584776
0.013884939462453692
0.38866273456621364
0.06497593315338955
0.31152721689099516
0.7964418459729262
-0.9020959049733022
0.5620699613130599
0.01586912496394984
0.3975796028253899
0.09567675165262166
0.4660527612498719
0.8381393694992374
0.7858320022007494
0.9138306816106075
-0.02212626060107436
0.2974366025706078
-0.3169848307399417
-0.0020225450760379877
0.40607584108315214
0.09972396189150516
0.3330393547403013
0.8043004354679277
-0.8370636468173964
0.5710988528437363
0.05225132777093832
0.41454249407262717
0.12917488972571226
0.4794492993155406
0.8410115805749943
0.7944715546725051
0.9075087266398435
0.015422843295410564
0.3197175341002002
-0.27110529664157273
0.08519740345614508
0.4238096393822346
0.10348180236626986
0.3475271197106838
0.8320864079587671
-0.9393486378417679
0.5954842381352795
0.05425993907357338
0.4326370397021458
0.13408385307603482
0.5002945017378636
0.8718611184218751
0.8217237412678778
0.9440889589491831
0.014606411863572576
0.33360105557109987
-0.2920664351099114
-0.6285230192305216
