-0.6432136364183314
-0.6054900585547575
0.041459309035983806
0.6714837790829875
-0.44961499811148753
0.047616917588320616
0.9118788942621273
0.7027316708274441
-0.058151007249232285
0.589938445575989
0.23231531270223074
0.08695480338755737
0.34483274748021714
0.49960868840260264
0.05231953926021287
0.3246194722410555
-0.8241151254627584
0.04111506457035218
-0.35982906142921656
-0.6721068438543499
-0.18199440082751642
-0.3227220172044352
0.7913598446493234
-0.13746534560283724
-0.2422911118691865
-0.750283180818977
0.06253200075972604
-0.513881250179275
-0.24244710977270717
0.022975079119875615
-0.09741758198131885
-0.09996098680129845
0.0013117497289284851
-0.9405277891076353
0.4429086983675592
-0.006655642619539125
-0.1671219655400047
-0.8025999435321552
0.1051065414503443
-0.39631946212877456
-0.8440751657470995
-0.024700986037337294
0.28988815076039426
-0.24204139576461317
-0.06182692739539077
-0.9060107199165819
-0.8723266043288741
-0.026795149116886716
-0.6495125054177012
-0.6241299629881224
0.8461219615843208
-0.06702687696971807
0.9633565234566193
0.7286466459181181
0.6103171185910686
0.3105710304692291
0.35648728432851023
0.3219652984235058
0.2417100894955505
-0.7836888479751962
-0.5226755836067626
-0.6522042251217273
-0.4696137331771996
0.8393452774871596
-0.03778680494092408
-0.18944995904321915
-0.7539481870288174
-0.42936916027788924
-0.30494001173684837
-0.015717622558432485
-0.12545480437687187
-0.8797674966757045
0.552247790311668
-0.28628995718082145
-0.7605597825145219
-0.5363774103656472
-0.7987303660455582
0.3126043430355587
-0.07352340477527594
-0.8931799214392373
-0.8899032315562346
-0.001109162052216157
0.6052843055161489
-0.4994083402938658
-0.24011944251301715
0.09760177302644986
-0.3595144979461558
-0.4992545439098761
0.6115261170181343
0.7320080297055456
-0.9366040263008096
-0.6198703620512676
-0.8249191945735616
-0.2621981942919673
-0.6223281843018933
0.5379178273363623
-0.7480548837122867
0.2719808303145455
-0.16204355342135013
-0.054711745859782494
0.33758758126744715
-0.6358741580753063
0.7389498455793039
0.020980462351651987
0.7370625062255347
0.6383419370456614
-0.7638936857150698
0.8334311989728881
0.6336785559962029
0.17978070165993693
0.5353398199439693
-0.2415506219424328
-0.40286145936662343
-0.8292665561955678
0.14936272446381801
-0.016603673400160144
-0.16404897737580684
0.17383279782568145
0.3200140576399272
-0.46268922907207616
0.06461365274976928
0.7778455517974716
-0.1596105961144025
0.062177227678443185
-0.035005992180536565
-0.8842165663121497
0.6802946740738447
0.6377523591388545
-0.7588537182430791
-0.9968075167972748
0.17904367122883
-0.10335370351767473
-0.15673630575575856
0.2586331040109985
0.6530120118668645
-0.3905959474764509
-0.7045326894026906
-0.9416858297519748
-0.6158739025979305
-0.18125405295174984
0.41510144367769447
0.4636401404660682
-0.4965466527643252
-0.9585987901309666
-0.41962523756544534
0.17367747491819865
-0.8404955971129052
-0.8268106420891999
0.5576780477677942
0.0006634181134955215
-0.7736791999684204
0.44836563216588193
0.7582252758278296
-0.18965202658235322
0.13761301425083872
-0.1658171183877591
0.7596680557862941
0.44706418312587803
0.3050364979402159
-0.21870867956703335
-0.6508602081526574
0.9062744715937578
0.08151649152342694
-0.5158930466745212
0.564279830891368
-0.42538288812875946
-0.09008822994400972
0.7458774221251426
0.7721563787706961
0.95715854877932
0.749457880909782
-0.004908707779719837
-1.0049430186834125
0.0666756344976879
0.9077720413718059
-0.9744148077418306
-0.04454993325614101
0.6957586440053505
0.5209102621404988
0.021297194953254543
-0.5563079851426429
-0.8371407122402857
0.21366199763610788
0.007397991268121401
0.186867732811671
0.6378697284858323
-0.6421592392104833
0.027319736445803492
0.9582547260214753
-0.509430397699476
-0.3897195389514942
-0.7521809535788304
0.8549935156062196
0.28589794603732294
0.06294541252247046
0.16411090595041336
0.20685516914101126
-0.3370117955049339
-0.46726027438778833
-0.7643750119120469
0.1043218910763727
0.5261412662701358
-0.8104210589409905
-0.4688817035277953
-0.15819333286263215
-0.9088625705882303
0.34851258788544215
0.3572601286331368
-0.49942914536485256
-0.511133790059173
-0.8953364569650163
-0.13596444877891684
0.3426724339807171
0.4786465237284735
-0.5125013605999097
-0.8194068156311122
0.24817051034275942
-0.03377754130937632
0.04289980735356993
0.9471099041428783
0.556486344279656
0.17356098869352743
-0.7743142738463568
0.05291988158064669
-0.297392669458055
0.00889058412220336
0.5659746987702391
-0.12486321804690785
-0.2523524432654496
0.023863568731103856
0.8412248189448833
0.9152143850738746
-0.3431630747832884
0.8073677421825719
-0.040810340053653284
-0.582114489053208
-0.6637881415318859
0.39124610866712395
0.5601135188299169
-0.10323218931705226
0.30923558664304523
0.28044741712731386
-0.8206339251745909
0.960690417624463
0.43554387684523677
-0.31886152986820787
-0.8824025826169767
-0.3207873462135626
-0.06955552905408012
-0.8845417170531754
0.3141328476702579
0.0022920188904861564
-0.6489321643931624
0.031147368673469077
-0.677191397114407
-0.9197219983614996
-0.5096420828955329
0.6800848564731828
-0.7670057797762037
0.3080156455999627
0.405126156927451
0.13057003155052282
-0.9333301329395447
0.35871183391484995
-0.5510186293658933
-0.33452335496602537
-0.5767057075829802
0.00357587148366204
0.06229237083837433
0.341408733381731
-0.8056494628407654
-0.4847772310671796
-0.7205935188408323
0.9622684447108963
-0.2158816477153323
-0.9728644653711918
0.004843173842901812
0.685649918464652
-0.8315661568359081
0.01310888226122787
0.999209139219377
-0.9421105789012807
-0.9076249460595834
-0.6044822627635302
0.34583405577086285
0.07219479568256716
0.009956080025225165
-0.9790298485402119
-0.19301689260313837
0.5912871254783174
-0.17112718712640718
-0.30340728838213643
-0.02750516955959405
0.39997748194048127
0.39293397316193907
0.9524859418532671
-0.5869910560683269
-0.7443085207104313
0.6337144444867161
-0.16059370708501686
0.0018775734106059366
-0.22014321880925858
-0.020104425485988096
0.27513698992205604
0.5396140039179064
0.621129218432627
0.5938232968910746
0.13732748818255971
0.9635406122578168
-0.5757862896250685
-0.8242461658789043
0.13586202448568246
-0.9248464624616193
-0.5086750481817126
0.4431348537368471
0.1511851633510922
0.6293762757473721
-0.1390361810703474
-0.4519894889903527
0.08996168898794067
-0.8496501876540761
-0.595282595226086
0.6181570445617651
-0.09230125922512582
0.8107504828398925
0.7945171824177485
0.2473552645924975
-0.4262278162911306
0.419131861936176
0.31341527391304413
0.17010417863768415
-0.8537530733185391
-0.5496401341639059
-0.7828930072190832
-0.4531569708969885
0.8485973944616555
-0.12959713238569076
