-0.7487650802931101
0.4288374013296601
0.684304902936173
-0.3741020463411936
-0.26447953600934526
-0.028359644360574587
-0.6618318031436696
-0.02263854230823803
-0.17518755892708504
0.9804470846332412
0.7601574404750935
-0.3650442852609075
-0.5593487933629337
-0.28775095673721396
-0.1539173229703067
0.43744588236010307
0.8721909103339018
0.0944380095552293
0.43325188290973116
-0.10043980743640601
0.16739125634610685
0.026075638387410116
-0.7091034894710315
-0.9625759365688257
-0.7284156146645371
0.8526254646616123
0.8950623767814017
0.6731616490356858
0.8760732534916256
0.6654080175226456
-0.2661590126046064
0.7068140617639544
-0.2891033660810246
0.20504337952785434
0.014801731462330547
0.23892199125546631
-0.4671183318697595
-0.07175400914697527
0.6178552460742102
0.07945195678472733
0.5019578068657455
-0.11691397333192348
-0.6482450576927922
-0.4851131746026397
-0.6546783205296524
-0.5461643465754349
-0.6425083389269101
0.5955625764464152
-0.0008669994696246023
0.5661298373020986
-0.7660721047321284
-0.7588818670784324
-0.6502996478406833
-0.08960368342020886
0.8840678118908953
-0.3363988210827993
-0.9182130314496504
0.13606508676327445
0.3306185305203255
-0.5274034271600232
-0.9651430468728789
-0.5421401365659664
-0.8651973957826857
-0.9115017523683634
0.6477217307438454
0.26883773153562895
-0.29071644187616397
0.7452468469116517
-0.46365683638434185
0.9602278091301545
0.5912177229442811
-0.07250199406150068
0.6437496243531796
-0.6132769860381241
0.6434591377153902
0.24444020120318316
0.3522944622459214
0.6341108327826238
0.7953048805126605
0.2142731011468268
-0.7280839724797036
0.9505071297100858
-0.18207956061039476
-0.1295884274441066
0.20031798353138042
0.23721287249030643
-0.5738709305871759
0.5707756005514228
-0.9692444090285232
0.0622357620927378
0.23142904521671764
0.6396334220208946
-0.20154047737705671
0.8773022830042262
0.11633574249699409
-0.31391347774821693
-0.22014168177328297
0.015546592614010465
-0.8171695642952063
-0.4458676685992321
-0.3788571182747175
0.7860712476632333
0.4386400410887679
-0.28856083594766224
0.8034915567818284
0.6680670641440368
-0.7447655505046193
0.9569755169856468
-0.9536858669110491
-0.8537251215190271
-0.2119477990607116
-0.6144507691429488
-0.46387641694696324
-0.04764950367894849
-0.4210103072573357
0.5024486395753436
-0.9005169236905783
0.10152947435937483
0.3100370552968311
0.9369643528174826
0.7089622813763109
0.6798084827054446
-0.1933760103702368
0.46140012828272914
0.36060777218765816
0.9469301036208694
0.7642596870766939
0.3110837595258169
0.18514557022743872
-0.6303270913555491
-0.20558596660411962
0.8428265326127676
-0.3887696136419212
0.37117480459777
-0.08894300146303798
-0.7331909561000746
-0.8333944971965787
-0.7526001505048608
0.22678124359462237
-0.13058795690419467
-0.45004337725993737
-0.5767587701819172
-0.15061152484320012
-0.4973681289893021
0.2868540584975652
-0.629596203488336
0.3348118429082153
-0.5329388767864672
-0.21162103339910532
-0.29853987137608495
-0.15951384973702457
0.339406741905953
0.8353471452564165
0.2496466844466126
-0.7157947003907452
-0.21875110486225896
0.473852568790855
-0.978989440530421
-0.8909305109255804
0.4226681794324422
-0.4194655936507021
0.20564085928158862
-0.9725519734431849
0.5757304259106284
0.9856331611698205
-0.9201087049275077
0.6880514888906456
-0.9586388398431326
0.9021770322780862
-0.36692279518354765
-0.6079886760157207
0.8957477678309285
0.3555324454018698
0.4673197071355123
0.9074597617298846
0.24696254336808418
0.11146792354866635
-0.13237775861483908
-0.5160253628238987
-0.04189142116629904
-0.486369820913932
-0.37842987215974555
-0.38890314143330423
0.7827097227376513
0.4794091669798893
-0.19370995233283525
-0.6337958012381394
0.16456554994156555
0.46041363774496913
0.9806807710294906
0.3966367937999983
-0.7733815879375144
0.03852724078243514
0.21511172275540352
-0.9550287210430989
0.07461472692972544
0.7475882204115082
0.08044965226142617
0.6203693369739619
0.05854480220915805
-0.3173152402813363
-0.4953226876459002
-0.9871480735841676
-0.5053963930015413
-0.29335411424146185
0.6339570905366727
-0.3995890089515172
0.6502247010866188
0.9073372092670586
-0.5993376604030575
0.3683166667597528
0.802229445787158
0.12744097499183926
0.8993742877192346
0.8134375268875097
-0.6255741350440844
-0.9231889273672534
0.8081018239899525
0.25553748677942745
-0.722219191948319
0.3047514135332036
-0.494913271430222
-0.668414151156394
-0.266170769114478
0.6871987360702186
0.4100598399761468
-0.9913330027387411
0.5533191716102408
-0.3253827555857111
0.8238935468374279
-0.9419386823833782
0.5700842095401206
0.7540324234807968
-0.2633292834574646
0.9695941084062064
-0.21822855420101925
1.0389477197795445
-0.7958322181248172
0.1524591944095413
0.9287720357684179
-0.14581912042137946
0.4325514778124322
0.43000612103196745
0.8605257455275686
-0.41103085822175234
-0.8056684795798192
-0.22916559947054152
0.7624085496936193
0.7018747371969282
-0.36050734000626183
-0.9029221765323304
0.4343253469191397
0.3655336054016
0.13268984217959162
0.05167088302276026
-0.5357545446212606
-0.05610254299148769
0.07485447819865637
0.25779526649830936
-0.014568020669204903
0.7483096995769638
0.525982470326403
0.8919678731328284
0.32785949436535816
-0.9151697723320487
-0.0016647202653285484
0.24110113766675445
-0.4026144044443984
0.8668357093601001
-0.5997089888905361
0.3123148337606315
0.6102823078825762
-0.22526409998067742
-0.9601813971991374
0.5331801606401859
0.0648424353609585
0.9850469707031009
0.4004572142506852
-0.28193839344538085
-0.10160232340504172
-0.428970771550203
-0.7967447574845624
-0.6908105592941202
0.610076709301127
-0.8543632158022303
0.4619128886529428
-0.6850137521274995
0.34354516075953256
0.2928301303263431
-0.3853957672966176
0.551183545304674
-0.5090653366901604
0.6083429008951037
-0.8398580245516327
-0.24120065321012832
-0.3271910590886758
-0.5101373600108722
0.35522820783595677
0.3284447674285744
-0.8221836164271723
0.6304219065436402
0.18155056712193657
-0.6965684647943232
0.2291166087349685
0.4917172680856043
0.2556378355551442
0.7935409799499857
-0.9213578650958827
-0.5260390458673163
0.5950636872832644
0.4771500708316495
0.24341901217724599
-0.5699565130925563
-0.11378813569830258
0.6703397248078657
-0.6993287331484405
0.7666347247405009
0.5843470095995517
0.9812633302509706
-0.24478288753626282
-0.2612971185332975
0.004440966539291065
-0.4531545602071429
0.3664347115081814
-0.5549518131674581
0.046286538003673036
-0.036851919231606356
-0.09316832609101497
-0.5431845928403387
0.7073562670870592
-0.06523364958141935
-0.615416409931936
0.7147866831102402
0.30748390928147223
-0.35755785738789636
-0.27455757357579413
-0.8129105667833814
-0.48871988866613636
0.39510228682833176
0.3246022105985517
0.9117142536403089
-0.17978597585429062
0.5491793428789034
-0.5600139527950161
0.9690487209965043
-0.0643884874127556
-0.7618026530808002
-0.040885323404404456
-0.32242022847583424
-0.05486616372612856
0.09324697127151141
0.2519824284561136
-0.4472424570946681
-0.39168989868570114
0.15020403398762683
-0.9506612419712254
0.1672014431736072
-0.06503493316080293
0.19110979055276836
-0.9486212430709597
-0.7873525569427487
-0.9141036226108104
-0.5710424241791698
-0.5822273088480767
0.4126157735464633
-0.9664839942083951
0.561773494088162
0.7176102943794731
-0.5778351538582106
0.7464545005167632
0.7152808713400334
0.6476367622998217
-0.18001216199827458
0.9233515954696315
0.739975135368022
0.1183428279628634
-0.025362977269622722
-0.6398047536144672
-0.5427640256459687
0.43212939804703693
-0.4830596676699622
-0.0900636040293377
0.8067911366926822
0.017956011406508102
0.8321863194597464
0.8683841052892827
0.865943382964439
0.20109950974378715
-0.8729264175228533
-0.30915628342438983
0.6312349945517806
-0.5530652270291694
0.5759204460418152
0.8415708422437514
0.467892561250464
-0.13504736578731866
-0.7524954675907817
-0.9886719445726675
0.6580383321142764
0.08031902124292617
0.4784399160304002
-0.46860694221371213
-0.5739992938883599
0.5421680781642862
-0.32523847412636264
-0.43387798462789295
0.299970562970134
0.9157105021748886
-0.7035187222113632
0.35960417205001277
0.6567358883858528
-0.3124252950239876
0.2810401198637348
-0.8779499652014653
-0.7837385875196979
0.3514835624411319
-0.854675612636874
-0.28352802157858314
-0.8200382534942745
-0.7576360389869015
-0.5212238537063074
-0.041835751062625284
0.06438412062124678
0.8275809460718186
-0.42225894736941394
0.2635886447322528
-0.5278253161613804
0.052685133794681885
-0.7456664569139135
-1.0101108571250155
-0.9668782651164743
-0.9219668801346914
0.8906091372446558
-0.8569941444257075
0.6619550056359611
0.4119827270795808
0.7794207419934632
0.9105662627947172
0.015609207365328883
0.819807331473892
0.3368050146105832
0.5370053919214063
-0.09194264267123692
0.12336796336598865
0.6891173248080004
-0.8262005295078915
-0.009760494222786019
0.8993485074885023
0.17188881610161344
0.2584985884962039
0.7843670654816078
0.5884047364727875
0.07065596670253511
0.8427591161421779
-0.6741081954683807
-0.20362151092420758
-0.3185120184368265
-0.5041208384427495
0.8451627731915365
0.015088201882799366
-0.021497592561667663
-0.5671548672945547
0.7686015925754789
0.37616842654197624
0.7801745384980996
-0.15166329209708537
-0.2623014041476911
-0.8345784864600485
-0.7621870755266902
0.3688634458590824
-0.15417231586204866
-0.036906781167989094
0.9505748165046858
0.9805040939203274
-0.8731482627293103
0.2258229022901969
0.41671058157328367
-0.09733644434582511
0.08242518318227944
-0.8508831262132378
0.8797124137359269
0.9774460293395353
-0.32745623491864634
0.4192951110060297
0.7950962190350789
-0.9961311711823201
0.6423148802618126
-0.7446620995204594
0.32017263781105615
0.3038947252997347
0.2552833040986399
-0.26354185969830923
0.5440403105960203
0.3542694168645062
0.1944155938184439
0.8122066517245071
-0.7896118361962893
0.9724103548567334
0.7250919722033079
0.7254633026040987
-0.5164015364532636
0.8076158520096842
0.15260096468627785
0.8313044092517395
-0.8990890542862024
0.02611073135154207
0.436780374592293
-0.550214427729243
-0.9196502515418227
0.2575658521186037
0.8737146279304101
0.7298438943106385
0.2820046592431233
0.42169452575329874
-0.26996905241462976
-0.8719389879129208
-0.846022010115475
-0.19177317101861469
0.13499853998353845
-0.5084718047915265
-0.09357202563344803
0.2518407407404298
0.011482096284974647
0.3458128719806498
-0.61581988239665
0.7919219428451917
0.41247420541714036
-0.3475368547934673
-0.20813050062746877
-0.6680964940893496
-0.8481919658278858
-0.5624409749603435
0.95302942429158
0.05531053484943116
-0.6869665486920733
0.0031170288282801107
0.9282075088668229
0.42826873672779175
0.6820283979880789
-0.8053548890248575
0.5395488037757363
-0.17041851433429048
-0.8002038388512202
0.8354493406945224
0.08315924455536233
0.13339453940819665
-0.7145460386714508
0.8651128488548205
-0.2821719098413301
-0.43946409464995106
-0.16488286553396128
0.21706128846240091
0.9512037915138002
0.4989451188363988
-0.23445514233671402
0.48412526241613846
-0.6653224769460295
-0.9470327452552442
-0.14823203773715443
-0.30084363298874395
-0.48444392357232047
0.4028942081019047
0.378977778609724
-0.11101596863079743
-0.17449332921554736
-0.03991953737764648
0.8707604565724965
0.8798454282450399
-0.4969936065854737
0.17804253570175485
-0.1814431188649522
0.08708282703490106
-0.46930637204212344
-0.08399491963422978
-0.8222358618129518
0.7039867949259461
-0.09897497577045897
0.5729312327214071
0.09091761627481232
0.6360402975607606
0.02244076926819873
0.7372201793885298
-0.8263091135750471
0.7297742853049805
0.5051990688562807
0.025538084507753606
-0.8613576827320288
0.006325195253575444
-0.030592740727097945
0.12915136987515008
-0.6921168921879491
0.9923581726587315
-0.7918526297388093
-0.9309269012437177
0.32053531245513295
-0.13768240715726557
-0.5726164308384103
-0.9399683591345068
-0.5287947364415619
-0.6862461261182236
-0.8781025677377113
-0.6294117476861456
-0.3873779096134263
0.32831033727694386
-1.0006526720694313
-0.07483220937895546
-0.5237887099979947
-1.0126968662805924
0.3353851265385976
-0.5662199878375449
-0.3184632973196293
0.8277636229492826
0.03866296576632321
0.7030519964404834
0.1218509109150843
-0.21541536047439913
0.3319652884161268
-0.0540987889602742
-0.7617424886322653
0.47574374219800075
-0.3042473797490432
0.5963109965352937
0.6739400143459593
0.9049549572568946
0.6353907584487558
0.05790236035417566
0.5558946270508058
0.7791144629044815
0.26352327140396314
-0.4934163306337946
-0.4707259586203484
0.28316717980129824
-0.7970970625956899
-0.030487102167549747
-0.16819705144988184
-0.1381015052882241
0.44831877978718165
0.7689612464465665
-0.928962073164345
-0.26159774896460036
0.965726742364535
0.0955314265804305
-0.6255901480432697
0.02249463943042973
-0.7374437676122996
-0.8989272895176137
0.6457518840620804
-0.07742761277144349
-0.6454768114118338
0.8674608983806955
-0.6133043370807321
0.059375181987706895
-0.24369757011684418
-0.7543391446136627
0.1520881622968477
0.8098699478485021
-0.9223399401097374
-0.7449970759734943
-0.10803945759387795
-0.36710984507477584
-0.20013700449581492
0.8189901831942903
0.8320036551992
0.41673178318298154
-0.8667079046971166
-0.43016273860054277
-0.874906885497435
0.1367191248619521
-0.6458620446998103
0.9747536104159847
-0.8952796219673637
0.23564188592098279
0.8430879606487076
0.6707334393429412
0.264726781961071
0.9119318348955389
0.03937684320611947
0.31220960434189166
0.6155265981166279
-0.8146269802827935
0.3821041360755498
0.9022028726926465
0.6671046975280757
-0.0935709675824738
0.511050307669345
0.15782368378613737
0.8364825318189335
0.7445844374730402
0.8830724550986776
0.3569000660627686
-0.38326949298797247
-0.7098576228866144
0.3600922147727442
-0.6608456778332276
-0.9579506762898895
-0.746385124712858
0.677573419051841
0.2017138854189513
-0.7404662402436075
0.6323081614467554
-0.6276398141482764
-0.05147020249342682
0.8855106318171482
-0.36928801484357565
-0.45142585278648545
0.2348138223186599
0.5530074269806996
0.8221811433075573
-0.7512323164929733
0.2870071220967754
-0.48536342981806974
0.3735055135105759
0.38012229623395044
-0.5158020167925849
0.8085450263076421
0.3546242660737677
0.4841870248860918
0.6059469117148951
0.4728877155385426
-0.9098824714437167
0.7334054853109215
-0.8278904849450945
0.6421923474786474
-0.11252659278404224
-0.3801605752549807
-0.34099566457620967
-0.3133699290414903
0.17135791342434437
0.44764790581960456
-0.9989175281908165
-0.9845926506328837
0.5705128464423819
0.6569014869308037
0.5587793067531606
-0.7730866343995567
-0.2293157646568291
-0.40188140945504774
0.8381281097631297
-0.12096011417777201
0.3552991675863999
-0.15357893148555218
0.940489758105096
0.4087653640709877
-0.7479721437000821
0.5950485649672107
-0.17395568890317403
0.9134741884915175
-0.4113978323882566
0.586421327635275
-0.3081482532557371
-0.8260893847728591
0.7010574770281774
0.5625299271837396
-0.826439914648018
-0.8029690850204838
0.7850761632489356
0.7841576429584056
-0.2439071690839153
-0.6406971703522203
0.7245071605491116
0.9105038381405401
0.12298478670045934
0.35041725722957684
0.33707037046326604
0.9896740451439785
-0.8009465845898999
-0.5066690937578451
-0.24624585678907704
0.8346152982821383
0.5441837141215868
0.08377964456582224
0.09872443760192914
0.5147783581728015
0.02514475523830619
0.27129975561755026
0.16514592855867732
-0.7640166314609727
-0.1921677558347405
0.4685427025252156
-0.0006940381181492761
0.10662634528779935
-0.0941498285975999
0.7657697544406585
0.4027519843273264
-0.023561272315677624
-0.7569016864997753
-0.7317060948561451
0.6663566144659356
0.35387924135006
0.42053422941778584
0.40664636333285453
0.4443044510997205
0.5326348498450595
0.9950680915734782
0.29626224456284134
0.5452035750077817
-0.7304220963660997
0.1749167284858364
0.19569812149084442
0.015547557370033216
-0.32358004159809706
0.869512474404674
-0.340667840617244
-0.398116431884301
0.7304128944101806
-0.9479499262288615
0.3350300163825266
0.32625277013495246
0.1478603912378187
0.5248239901545517
-0.38361039615268644
0.3960530631688952
0.6658808507638654
-0.7032173121632426
0.41780850706462136
0.7906291996940471
-0.5158444790532696
-0.06008539305427307
-0.3739172269547847
0.0991527000070398
0.2026363847863295
-0.3458351924392249
0.20416500687458305
-0.5699300777434766
0.9690157961207866
0.9915709155956227
-0.0012584719394315629
-0.07117518861486817
-0.5880682591496492
0.40001353197693773
0.9409827633684893
0.7081755463989561
-0.7757376054038356
-0.6258852337168824
-0.9827455331772553
-0.29337359794831264
-0.9715041724200566
-0.4378577983003228
0.3203520870729015
0.83516356193601
-0.05996324176462575
0.3283671540317197
0.7801518965952214
-0.26259382159412537
0.9665875532834487
-0.36881971233699373
0.1450379913163664
-0.7997587741207166
-0.30012542032531636
0.9226066854249503
0.4380208613007395
-0.6206872254719729
0.2814556452458085
0.7760500564734003
0.1275238777308573
-0.44903437138576646
0.04567495425411719
-0.17047785124042616
-0.85463362113799
0.7208883301918978
-0.051178125783366585
-0.17793528021695407
0.39432432839562037
0.02577887909489173
0.4242400919408841
0.5143431421640774
-0.9863469436238086
0.8082676694422364
0.7396891254202014
0.6260928067229912
-0.19212675495511577
0.7878879930627514
0.3914309416876125
-0.012104902257341177
0.9397590939635675
0.08989576853377806
-0.22287036917505712
-0.7251489921998817
-0.8577715545238296
0.26176814411529986
-0.3347239995995827
-0.008393032010244751
-0.3692232653702653
-0.5468913117401143
0.029846827981199198
0.28433054020110793
-0.302352393786357
0.038761125742559556
0.09153221846122267
-0.29339290207396046
0.39373195441874237
0.08642861106959318
-0.9063517069104313
0.7434281225082575
-0.1872796801904162
0.12542512216259016
-0.17229166821750375
0.12631283080631484
-0.6742644040205306
0.7737252511409469
0.5450472722716393
-0.6677974864776253
-0.21403788556641787
0.5417739580605051
-0.3933694257875097
0.9347984579053163
-0.9558925259020501
0.19379171846365767
0.047323717886784994
-0.37270273964342515
0.9516205102087771
-0.4545912831049081
0.9728430441167014
0.965821246407965
-0.24995406168452652
-0.2775351025688974
0.9302463567467186
0.7162119202589065
0.10955920490727242
-0.30937922998359707
0.8159694974226803
-0.4304819409037837
-0.10678554387809659
0.6829075292400184
-0.22996967735202767
0.9558147268139641
0.28368237563498266
-0.9215698157424402
0.901652256932857
-0.9867589541416739
0.7096418348720607
0.09268600743075728
-0.7071852918968571
0.35970457914486675
0.4645674590213026
0.42874523559659045
0.30949697381970886
0.5582701230218903
-0.34590435966231764
-0.20442584194644717
0.7174795704344782
-0.8865645605831537
-0.7371783553643088
-0.5524735701066807
0.8402861794574031
-0.7955971127761446
0.35515681009143374
0.5822742700419224
0.004134623663417412
-0.2511309652559895
-0.025126186606151527
0.4871229599089868
0.22450557471461438
0.6541992787526874
-0.39885968684466433
-0.6152317284555152
-0.3216647827979191
0.8151685027376244
-0.6210549207998132
-0.019405035344876195
0.6426782627756883
-0.2512650942921425
0.48780367220556614
0.42233809376040987
-0.6340521878365057
-0.32157924554239153
-0.28234704796841514
-0.7267073345637355
0.45859691359940946
0.8839048506030367
-0.433368304486867
0.15396574294308935
0.14482709475919675
-0.27223516806960607
0.8110937796972356
-0.3824722150721923
-0.10619035364493291
0.7018612880818013
-0.319715388126981
0.9616910652027879
-0.889291680051274
-0.7425233291303864
-0.257542351838579
0.6560920822604606
-0.18580539463836288
0.9431851250080066
-0.07135987537833648
0.8512129091478505
-0.6005334329801711
0.438240294580479
0.7491205236523666
0.6584065084695493
-0.9796394572349106
-0.31346885934868
-0.2190041564930271
0.06753092450577175
0.8819145815694792
-0.6327227380137169
-0.6999305370748793
0.4439391114009493
-0.472197471819188
0.9164476246868564
0.4915048421136669
0.114435202284081
-0.44876581499914503
-0.6910956885571761
-0.6603609905544686
0.3880261015816258
-0.9149052043094748
0.6244295554249595
0.5252344226704342
-0.008990683410550928
-0.2590185715916544
-0.9057252851978007
0.34481993146303885
-0.8859035246137447
-0.9508624547499245
-0.3466401953955821
-0.9785402651809381
-0.9869018301971199
-0.2951404088461104
0.2368020455027152
-0.523084173075243
0.41590236032345307
-0.9167085087243728
-0.5753880391668215
0.5127203244693809
0.862333788812255
0.9110615885869222
0.5701529971380267
-0.2801910645775878
0.37061583316892943
-0.40574640238044746
-0.629479347587912
0.33170212150341
0.6859579576855623
-0.783831443020092
0.9104971703213154
0.5868597150465186
-0.21444763466792718
0.9891079812502289
0.75258447489282
0.8868991991877737
-0.19009333799555536
-0.6193776026516611
-0.8801458753702339
-0.21482656639773876
0.9654935795778801
0.9402941140835973
0.49560657068803327
0.6889769393254477
-0.1619384543656496
-0.4018442403354728
-0.5391335912872758
0.48821305856597064
-0.5695496494536655
-0.10743126196933478
0.592555097421967
0.06206978310281931
-0.5779867328883714
0.2783641142199448
0.9885406229785859
0.7138594312504285
0.06167105712697638
0.6140177820197117
0.84310427765162
-0.731920735898396
-0.7190314493666572
0.4805216035031091
-0.7303401025465436
0.8349686656053593
0.24186797183821204
0.19528289813698166
0.21920164363594266
-0.6009820653756897
-0.7462918610202127
-0.6257048991147112
0.7171010814881595
0.7506401088647526
0.1414665650948387
0.8522779391276073
-0.5768321121018725
-0.40975106818856255
0.699156983492936
-0.03432480935038445
0.5882148560357384
-0.8980254652191929
-0.46111319209987855
0.5802194164755745
-0.4517164888731771
0.8822370373156612
-0.07396532310147341
0.5193436381748584
-0.9523345630249006
-0.42730577038515616
-0.8822022000852355
0.7112230351521067
0.4935867446414344
-0.928809404116542
0.8043053787980492
0.24679886489334799
0.28521990488929333
-0.824952577038625
0.9298401146546834
-0.05186158326015543
0.7855173622219457
-0.24820049703482855
0.6476063036339912
0.12285313561711243
0.054499848889407676
0.035130158574037736
0.013698969351295021
-0.3755130037704296
0.06932332578779338
0.9171254606493736
-0.9495382903757446
0.9358975245844594
0.4666845784773356
-0.14830448758656495
0.11575700761387626
0.5847528264700568
0.004075649217900379
0.22261062239425794
-0.6859245894396443
-0.012186027350970593
-0.8926376464584913
0.4501291635695264
0.0862600047691324
0.41029872920692245
-0.6988458524458914
0.8362383174566137
0.31823952290450136
-0.7136013866445283
0.49798385805200995
0.330119463352134
0.6579039984774184
-0.48584532586842616
-0.6298407740281664
-0.989523157651899
0.12786943938780182
0.7912071272720695
-0.8835363684912311
0.1104749405273663
-0.5802683330194162
-0.09727847149596883
0.9872805807526314
0.4704260630610738
0.546728317871998
-0.1054324050258999
-0.5777418266639409
0.026807978398051567
0.09504992662698922
-0.02858567741367766
-0.29054905723876007
0.9096918540702068
0.18342153318283289
0.46404262860493467
0.8058281094308801
0.1694566922267387
0.5655485411881037
-0.6429588464180482
-0.08003107807471578
-0.7488765738539147
0.5498151343635225
-0.03574591157664559
-0.29107799655850514
-0.7411383193217864
-0.7082498491753416
-0.5169870037524118
0.29834510806955683
0.23524589352862313
0.9675903247625485
-0.7862832131770628
0.13384000430860024
0.6964098708646094
0.8019741668303767
0.75448306375942
-0.5553120393636313
0.4171191973677162
0.577569807944608
-0.7025674741807307
-0.6982540574559556
-0.5698155894447723
-0.09102016323138751
0.1456639882527721
0.6881341742829973
-0.9025087005691245
0.5572635549165994
-0.4915110892304033
0.46373478492188414
0.36021894991738285
0.42625905623269944
0.3850210344610469
0.6167206496513729
0.018410691244843354
-0.11957450000746493
0.7091662843976223
-0.12028528364323018
0.5988219337145474
-0.4913310653430171
0.09507226199519507
-0.3732271963726579
0.16437595034921812
-0.58723907269589
0.046511647828006764
-0.5129481189357925
0.6697408197992681
-0.32836471373800635
-0.5144103669454865
0.798619702255972
-0.6996758104223865
0.7970480325333736
-0.011907146704783347
-0.5774209365011319
-0.23778395710042874
-0.4514032707338942
-0.03081978175782943
-0.3245543038183875
-0.4910003809801241
0.08719174500644408
-0.39215413592870535
-0.058204282081615946
-0.2600120988206879
0.6135307273106032
0.5580707458829132
-0.24145286254438064
-0.5219678129506957
0.08394912449011252
0.6358999688997472
-0.2078425543794415
0.17118807335299016
0.32852105907739737
-0.5223463341843563
-0.6145433689504253
0.6148051446773204
-0.4973616049548777
0.8836149493774496
-0.08066655329905802
0.9421063982717354
-0.9737590433162382
0.20185628786881835
-0.7421427167187551
0.966695214628601
-0.5594879257816566
0.5634992901680222
0.9043320430279078
0.887877997325444
0.5411179099284936
-0.43580341911994935
0.8249114012952128
0.7472006026752418
-0.8017356912784068
0.37420886965051164
0.8534522885105988
-0.6736447508283224
0.47128360705442607
0.8450470673478168
0.32546072897566264
-0.39429434019874043
0.19136199139715732
0.6381306456273234
-0.4322477201115913
0.42100218048340254
-0.7645810983250069
0.2828409067346444
-0.7997008763830097
-0.6204445751036595
-0.3222252929927513
0.6510617180051921
-0.2350805362768363
1.0072755545954044
0.4553894494111684
-0.9294654679239903
-0.22982266566314577
-0.3160259862629561
0.29005251462152404
0.7432599029116576
-0.09669560495942195
-0.8289436167356037
0.2701520306835726
0.029394126360426483
0.5558917539111007
0.6292754970380043
-0.8429557447655006
0.9868984622754108
0.2746856947911821
0.38148371580192525
-0.11584380190793983
-0.13381917424077097
-0.04380314294681609
0.47463771218571593
0.9860390019171579
-0.7753565884561944
0.24571268176494787
0.4292327879994213
-0.27648827704596907
0.15401818854088664
-0.7675621523596364
-0.1733308348635452
-0.7597203707052277
0.47264332734253817
-0.24965393682402737
-0.8043876944898061
-0.6632407871425733
-0.07038335275963768
-0.1495293868965371
0.5243389767385824
-0.5211640096716802
0.5918601110692717
-0.5829628685770233
0.31181738311780816
0.01626039782971474
-0.8735877088639967
-0.7240319221780389
0.06822267072980594
-0.1774949170114653
0.34150413262272394
0.5040648201174365
-0.8581972822439001
0.4991135674254197
0.5871873462754025
0.7355984006599171
0.5809548800788648
0.7127155010870496
-0.4806228212566203
0.880482590908317
-0.6607167128991892
-0.7974316229655298
0.6554482785494029
0.35526860772854396
0.10878632676174176
-0.216619853123875
-0.48993197438642466
-0.2769948810259026
-0.1020749465602118
-0.01737953473187264
-0.20742810758722657
-0.6024217657480181
0.1591457382781371
0.6661761973428917
-0.7328617735377816
0.5299901871779363
0.8759758001208645
-0.946873414732384
0.9476884711866153
-0.3498204412456951
0.5651250578492741
-0.6261777744750613
-0.4403071595071177
-0.3875878756020711
-0.5844208075304048
0.5424979490623072
0.7246591905973434
-0.631740631778362
0.8565702840607033
-0.028536471669751887
-0.4886833403224508
0.698111711062412
0.9829217969561742
-0.5902912072411126
0.336736137374777
-0.44232301086242054
-0.09717360988098903
0.4770193225572898
0.549256421673913
-0.635244595074543
0.32851693024362116
0.11900302119224658
-0.5751427231577388
0.8869011125187117
-0.5054574200525829
0.6172993699896538
-0.7566651442340744
0.44115085057724746
-0.30062271734453705
0.5981541712861926
0.9491318354490942
-0.2030712790797015
-0.35851871841493044
-0.3091344556278753
0.7284147796392302
0.5341300974826203
-0.03785999473549358
0.24949695771217625
-0.9663583999630713
-0.2692835605982635
0.6021441612240692
0.7133030422810342
0.1468073816917779
-0.8587833190503439
0.30253933473862377
0.26324056565027065
0.05049171966392802
-0.0713885429531092
-0.988157100699212
0.11113411755090355
-0.8725595004489957
0.5249932119589852
0.16739027469074122
0.5069233718515969
-0.7654371373400155
0.21952258366787758
-0.5791858874335711
0.8534349385139816
0.6897591032199267
-0.11383097416491719
0.7454304028478406
-0.00500804464109208
0.2807583628514013
-0.4518862736684051
0.5436132466381669
0.5639731014327771
-0.2759187145001583
-1.022630249282793
-0.45457941349627323
-0.018873537592388356
-0.5590609074915316
0.45619532576546656
0.31936536587361564
-0.1091582622425513
-0.692294500394392
-0.5684051535402904
-0.10370916122627369
-0.21926590159823892
0.7990599970073842
0.896755745830347
-0.40546716509085
0.3270541550388755
0.8036462830371041
0.36654444786560547
0.7591235118439841
-0.057563667256805895
0.16362787378499488
-0.6898791022371924
-0.060754706336495656
0.811477132167521
-0.7831762274045418
0.9132529179216896
0.7750653726630254
0.08510820813734306
0.3835462591978429
-0.1009292533347133
-0.7315070815814075
-0.11033002837843438
0.552756797026034
0.29177911382077637
0.31693046764358473
0.3055649261777241
0.6794103798353549
0.06308461732473643
0.05564832022406988
0.2848072728643273
-0.4996910965541912
-0.895574054613326
0.8239763425934413
-0.35525747159214227
0.026137366875941037
0.7370046087191475
0.5900037781171195
-0.08912858373652033
-0.493830482685337
0.904203836906175
0.8891997555009669
-0.8625714985488184
0.1507713041062866
-0.9891991736186401
0.010565898404027127
0.9267291037492037
-1.0047932791771759
-0.380243848709647
-0.3056516535733429
0.40545978695952134
0.40129878755018406
-0.7559351415725005
0.4562647242292306
-0.7579805598900887
-0.19708347602688445
0.5585008044426847
0.02635848284905892
-0.45143064651061243
0.8274118416487688
-0.47799098635673287
0.30847815146295354
0.3318283799577293
-0.7955618839895772
0.7193767534314832
-0.513514301169991
-0.6831907366002545
-0.2441097189121716
-0.5687967428985545
0.647949630370701
0.11939818082179539
-0.1574629852482159
-0.5251453385469932
-0.9862411096682928
-0.13266316168181036
0.02048713647552644
-0.4143238120796603
0.372379619661707
-0.3817525390054129
0.021462204434353167
-0.809693660342363
-0.562937409879438
-0.06406299999566112
-0.6122282902573503
0.9055332836865037
0.6939652017466563
-0.5863664845861699
-0.09938092454989034
0.5463065348326545
-0.8881725077332013
0.8781177248966978
0.34247268018556487
-0.4179005485710876
0.2912625727351488
-0.48612663750261587
0.5582027495384381
0.7334600452840054
-0.5266211037961158
0.21870451249486758
0.4781935891623842
-0.3695127121796876
0.2034996770885147
0.6101288575394787
-0.6074517916813096
0.3696717785203875
0.46032941764224367
0.38797827306568483
-0.6928588448504754
-0.33127230622421494
0.3711181893188429
0.33980276020274186
0.7284524571271915
-0.11889790424626855
-0.9554706492124997
0.025294804864722163
0.4646795608991985
0.5021434439395835
0.13308957712169334
-0.26593785981188156
0.6412225301986951
0.46350384896037644
0.6023049786202508
-0.11781340503003823
0.4813791242238288
-0.6252000454638262
0.1262639222610859
0.6704292434549829
-0.3885993147277936
-0.5467108121049579
0.35150088301465565
-0.542197366844065
0.3234918273575073
-0.3480160754231686
-0.6815681346740563
0.6792914706387706
0.735215787874082
-0.15107098899696786
0.4445937316040245
-0.9688119998256467
0.5245065740787606
0.07324011594294727
0.40605845907717714
-0.6856710569080359
-0.24403246404645362
0.7103039742483981
0.7787179135985689
0.7026922257082902
-0.44497530154767806
0.007305421662833518
-0.34615160387018296
0.1576980680850366
0.7323917784470231
0.1434521554462569
0.0312605432929578
0.9004680066712785
0.7191378410641487
-0.6101691356329073
-0.166016827979922
0.04506785306595762
0.3953769159218272
-0.16482270584832615
0.5768908522459941
0.7826076949172813
-0.9913173402745467
0.3861187190131903
0.4816923774910704
0.5282034558183988
0.5193578640733953
0.00013934836492079938
0.10881972789653593
0.003806218341398493
0.5049017780814449
-0.9602458678724997
-0.7654846165935358
-0.10582411429302374
-0.20099589260913397
-0.22948277232189707
0.12493715321817267
0.6781331623570612
0.08270451144653324
-0.10365934797897747
0.2949489710134572
-0.37565560772421547
0.4758522704370258
-0.4609584250458457
0.24816180571160706
-0.9493672530014324
-0.8901800808477524
0.8978656600876731
-0.15698830622598103
0.6148509346149629
0.6732952604541633
-0.5947917979371693
0.4306705956288581
-0.7473315762323232
-0.9303204026866254
-0.5232636935423397
-0.7527391467808713
0.3844072823513778
0.9422070049746802
-0.364474316978151
0.9868719441415825
-0.5469828917666104
-0.6302533804946924
-0.2919711249705499
0.5815760726485824
-0.5130986609332981
-0.7411364804972685
0.4957708362489692
0.5361036306104643
-0.638114561292201
0.6649994668408827
0.6883396968139186
0.6981010240458513
0.197383716117936
0.6434587667413219
0.8989949269959646
-0.3685737022513735
-0.5055433393522962
0.938087616561164
-0.578817407247885
-0.617926449094239
0.9463625705137835
0.052875390132235855
0.14807199275723584
0.5070635171026451
-0.603125056111067
0.3406062495169122
0.9491790214550608
0.39880429382582805
-0.7430346158831802
-0.710073015832698
-0.5229878983207132
0.21866639288718392
-0.33399845746292334
-0.9339439469617535
-0.35308661247939543
0.40511270218897066
0.477579729699692
0.8720327077915736
0.37280422681873343
-0.3996990106084043
0.045063457752876505
0.12898926371869973
-0.24720911323059824
0.8775805556758025
-0.2810484370599097
-0.8969390804220854
-0.40866841218678396
0.6370273834351885
0.9042261667595715
-0.9556657493794295
-0.8471384046619904
0.43842138678549897
0.6458953755867384
0.10176715268753865
-0.8554879203803334
-0.6316739119120025
-0.44101423194886746
0.09872420120147152
-0.27729186472099365
-0.9245934915860605
-0.9165436208450037
0.34306668216270597
0.20069419216558337
-0.2842696627480674
-0.8768080911988213
0.6903213350801556
-0.39258511188675377
0.5633905505007286
0.14594347036048747
-0.541239311389459
0.38371449939400337
0.9368382961776835
-0.5434343415054241
-0.9168534934623721
-0.9908767489366193
-0.0943987771915117
-0.994536272505286
-0.15674866243477925
0.3191679070244768
-0.9414882353724028
0.74861544767819
0.16501430705962142
0.5869186268236188
0.18993482643881499
0.2739704787888775
-0.7722463571791061
-0.6609407424066585
0.8391929401373219
-0.23835259811280451
-0.9168584798601314
0.45867918889782455
-0.4964910678793036
0.37912501594781645
0.09997451305597212
0.47735913663785484
0.917802954935804
0.3192377627142144
0.2523666672066453
-0.4372747766195065
0.42257533992201796
0.551289746437508
-0.4061231152572898
-0.8352015185900636
-0.23887863966496503
-0.5535402656857754
-0.6282811234532195
-0.44775442888249517
-0.8484124495480558
-0.8333695270472504
-0.9154488876283363
0.6242827285751986
-0.8162033257823214
0.005239873957387564
0.09445179132252113
-0.4297920187159028
-0.2393148088722914
0.20057495249496293
-0.1388665105949476
0.47247386679420655
0.5463476722414684
-0.1761351491869541
0.8810447038206979
0.07955068426096075
-0.636956934549312
0.8311168922947386
0.4437814575718175
-0.6147474861089293
0.3263526446639149
-0.8226924921222553
-0.6147908454794834
-0.3801700158446673
0.41153216648669383
0.892110526878963
-0.10636144859124352
0.6616175662496508
-0.9168227072398386
-0.7678313091593187
0.7364879569737427
-0.5642202988347221
-0.8751142818688282
0.7564465752570421
-0.7270426960229132
-0.27466777550615173
-0.14682469812657972
0.29795378842559406
-0.31068956918448787
0.5200943538334231
0.12562795252933592
-0.3458189450908988
0.9063482786937077
0.4390601526490022
-0.6804673148941933
-0.690529074330087
-0.8204339512984099
0.5735396609762722
-0.611547922307212
0.4067700110357178
0.8695313927901406
0.4020999949014035
0.545117632462186
-0.46799001296582815
0.40377438957734274
0.6454221003301438
-0.9431766048242073
0.9831176945962457
-0.9818066287896564
0.25865311729153956
0.5396673322011621
-0.23034975046800316
-0.7874166656285179
-0.6609934471252731
-0.8491092731582003
0.914335002429898
0.21407990988933248
0.5485593242481818
0.47015157311703115
-0.3004069303446417
0.23573891319405244
-0.43302744117890374
0.8667469541730551
-0.9302373439882968
-0.4590403034430423
0.45377283486935616
-0.6024212526212614
-0.4968001635745531
-0.4348285128536968
-0.2972489522362549
-0.18686647646637491
-0.798806338109808
-0.3965271608193603
0.6236518696976167
0.099952618732988
0.6323482395856497
-0.37831098054428197
0.3900209991999794
-0.3169941557261796
-0.10798797187277472
0.7351491066806277
0.21268318419036536
0.7947612793782317
0.649695655751654
0.5147400303260541
-0.5932768242123926
0.5823364314981044
0.15716800357332225
-0.5600978454531657
-0.6079101068218924
-0.4038441889643627
-0.7509166240371528
-0.4234818815793576
-0.5515576206958263
0.7954904713657719
0.5282731782315883
0.8286815248172372
0.018308423969238815
0.18985619676637602
0.2955166541021095
-0.8853809292996925
0.5747223653648199
0.2377735564158375
-0.3067102563998967
-0.012072195804586325
-0.7864609508772442
0.5216972947173926
0.5587804943483674
-0.09457699894774321
0.8930227856224779
-0.16581860291022876
0.6943895775402114
-0.2938226466821967
0.34654695649327955
-0.5283723372985173
-0.6820373281189909
0.5871385476474491
-0.9811158365202215
0.30349259421570096
-0.6422841993739377
-0.0970933793685572
-0.2557013434894875
0.2358151156101362
0.15023389473129833
0.739868296971775
0.8062149011029058
-0.6870148084410073
-0.5431447791144567
0.08894637923076268
0.42403989123877367
-0.30053469596968063
-0.7941647005100527
0.843270880068093
-0.052696583495533654
-0.717837405224798
0.2672976104159558
-0.8211294565609015
-0.34509763381363556
-0.32261630270524655
0.5728097863186481
-0.9724788077303632
-0.21572216811003567
0.09133292985597917
0.7963119148266959
-0.42832209406021143
-0.31354262050485615
-0.26864513999072626
0.6524999339145049
0.520381953100963
0.23507032822245358
-0.8064560204360456
0.9630112129199488
0.6281679780836653
0.45421415510665736
0.8159084382286708
0.549372041804743
0.24391965297289986
-0.08336446768509817
-0.7223680752915943
0.11932530947339509
0.5759031711726262
0.7745805972474004
-0.5722501330393086
0.5476642814198965
-0.9146477861495822
-0.14670515256908778
0.43164090904176544
-0.3106764154919167
-0.9269506820372357
-0.3874480154332976
0.9502706713515474
-0.19516980699950695
-0.42604212178002526
0.28354314673585723
-0.8933941374437914
-0.30149152236472176
-0.5034828530239
-0.6309310312874561
-0.6101102619902882
0.9087806312147544
0.4194410623239897
-0.9391171812023356
-0.6463379739536124
-0.6256723888626535
-0.39167794331040756
-0.5363359587992134
0.9979398663318946
0.8325351934298868
-0.23990959724575822
-0.01370553071057921
-0.00762250024989132
-0.3974790564656605
0.9952910834280091
0.6669449397326401
0.00484372771718955
-0.42273350503020257
-0.9400731590152864
-0.348720258236583
-0.21192448256290902
0.11859363931482594
0.007057119948920118
0.7843734556460292
-0.6149735899270051
0.8592432699777305
-0.28088199565988214
0.5099698834847364
-0.915599804263787
0.06355304898946479
-0.9927207936359765
0.9862494108617771
-0.3660801042942786
-0.25159587475963563
-0.09979028979941508
0.6729460579478542
-0.21228912272239225
-0.7885501533635983
0.11997262635879959
-0.46668229776492226
0.46274733844300325
-0.24690253536038886
-0.44616377499231497
0.037294633273992295
0.5599080131884737
0.7244124338971778
-0.8803971699730966
0.5779682147619959
-0.6744304202961781
-0.563269109739866
-0.6135775511579031
-0.7192406165556524
0.5131904268557864
0.5909788097441302
-0.365851734134179
0.9444595133011305
-0.3808415092219617
-0.7988715597416087
-0.984485275920021
0.1949920118525183
-0.8415641005414545
-0.39359213914228947
0.05772633526138222
-0.6712332302774713
0.07972415752173233
-0.0820937741576511
0.3902159465673173
0.9673127927190645
-0.264027283617053
-0.8964390642255947
0.4886461226701957
0.948806181024648
-0.06248838113908095
0.5250079519762256
0.6140511929490857
0.2946642714464388
-0.23011812545507626
0.39446821256075826
0.4928782156496228
-0.8017941474372936
0.028981356874807632
0.588688209320945
0.064208799310245
0.30410628140742546
0.23002497240275102
-0.3181215776556787
-0.3915541209785493
0.08700071817975331
-0.564836629317553
0.40576505217934283
-0.3580705600479282
-0.22969497997499302
-0.7719564521672628
0.11124256697295404
0.8604116219301684
0.07547777817118283
-0.697984297377325
-0.4193666984900807
0.3235947844561611
0.03298479155375045
-0.4306748414693503
-0.20551907531595348
0.006772809691641236
-0.36233019483337964
0.6283582347322588
-0.7013085018822386
-0.5846764854160205
0.9997565196099337
-0.5891954871632445
0.3837033538066172
-0.5421199378261014
0.8789313517579135
-0.5840418284522905
0.6795285517183469
0.6509844165570023
-0.4859077255928766
-0.8813648333738409
-0.40680851045116334
0.8537085622566198
-0.1929092028695847
-0.21728918869247613
0.30906276733169785
-0.6989252510869889
0.36526334543486333
0.41600786218309005
0.6031758048912725
-0.7823353745852277
0.2065765700283373
0.8295758606345156
0.1697134408230312
0.5930808394744141
-0.8184306935534271
-0.7735116418427518
0.6379659888524226
-0.4779689763927038
0.7373092898241794
-0.34705722312535064
-0.5808478764245759
-0.07773758523175776
-0.8079454663675996
-0.5840025841302451
-0.09629038103480045
0.03830434746913639
-0.05859572244554024
0.8147979632344963
-0.48485048145319426
-0.03365775148008364
-0.2169591366574323
-0.3950056726065159
0.656577559156293
-0.8325817167306199
0.2482227542885685
0.13857098910949017
-0.5623159863647457
-0.1620161661762749
0.025469660062436228
0.10337886794523188
0.45990472176684905
0.4381530357474097
0.38576578376857085
-0.25425948872747633
0.8724709237677528
-0.4703172254854404
-0.5620942298065776
-0.3527122075973113
-0.8266542378750749
0.5658505972704682
0.5789744403525419
-0.6722234123256048
0.3115553353336663
-0.8852715251512251
0.2810591207355535
-0.8007722153960295
0.7350524917960795
-0.5962787694559655
-0.06704823933589688
-0.19050228094821092
0.6476738475551277
0.03885278920003699
0.23795479291383634
-0.3763146688795386
0.3261754237699355
0.9822390379664128
-0.33869588282531693
0.3459032630031944
0.2541534220638868
-0.5715801124510691
-0.4125102732202735
0.8505193642407343
0.09656076249601658
-0.5880874936759948
0.9279531815369914
0.5582057182337054
0.9094278937049454
-0.9860296645281271
-0.9160541048850892
-0.5054518217039989
0.19842660868809417
-0.25124570167418225
0.08918887997560926
-0.9579495840660422
-0.46623307884661636
0.8335491062594683
0.8555964372871696
-0.6805244762687795
-0.7963191468103828
-0.23191872334427283
-0.6832887453091271
0.15880253970920258
-0.8479690618960598
0.15566068580590509
-0.8988599167562401
-0.1971360681878408
-0.8968301378459085
0.4640201361266427
-0.794124927440464
-0.7751746430047439
0.5471324939402865
-0.016653335180325662
-0.3407634468674624
0.4731325020310935
-0.7924824933036435
-0.15013264366333287
0.7241134642583368
-0.10566544090561196
-0.05442148666114854
-0.9381145424883894
-0.0037520293728365408
0.8831022341066279
0.7147471815117928
-0.5130425832026854
-0.042782718033312704
0.019371767746027016
-0.810210433171926
0.8927396634378834
0.0748507100277724
-0.5133251095800029
0.8856016990768378
-0.6564400353931188
-0.7918661005375733
0.017121974389119554
-0.39336416944615904
0.8980269529516238
0.9073073941202621
-0.14025497727725889
-0.03129908084432045
0.0674565857345225
-0.4374043423737797
-0.08083398614776585
-0.5901989014768224
0.8821269414564205
0.7999913089875502
0.09494803089046362
0.3631457293264937
-0.765727439159982
-0.5976379852262734
0.9098469750510771
-0.4124662684498929
0.16928936417861656
0.44821004744232934
0.2839355557084377
0.042945155927829506
0.5368661727445067
0.8000595143701305
0.43187127572300815
-0.09472271657811031
0.7086486061640278
-0.057718664416218646
-0.5118491964337379
0.08334939944965103
-0.5720727402049347
-0.08383883687547292
0.4864152639259287
-0.946311239998727
0.7277790782988633
0.8740194119711008
-0.8393858284209308
0.13527162396910097
-0.7991216372941459
-0.21165570012765608
-0.11933739670293556
-0.5363478301934348
-0.9916043159833704
-0.09768856784318783
0.09913021630981006
-0.44243243824414863
-0.21791136609561346
-0.3468609270869596
-0.3372236322716471
0.39198647978484474
-0.3747026961822422
0.6821305578787168
-0.051100035341297693
-0.8514790624379012
0.1692903610830232
-0.3684537281639275
-0.9449844390298494
0.44270923987999966
0.4009929732738746
0.771784842616934
-0.878520676934974
-0.22337127347828756
-0.7164972231077554
-0.9788618005074089
-0.3465236728465834
-0.701006014657517
-0.4729020826529607
0.4174097100314322
-0.6293569602810734
-0.21581875468520934
-0.3584316262281141
-0.6242712872994036
0.9617105415796182
-0.5494557823710129
0.31158693223189177
0.18701992327105899
-0.5926485683564137
-0.8199354755729055
0.1896847987729527
-0.3285892917727815
-0.4338894923854879
0.1327075871094605
0.9052710126740715
-0.9307737188380815
0.351408032869742
0.7487655521144883
0.9663180500958704
-0.2772006604490257
0.03928375179997845
0.7287650370109982
0.027033780122952322
0.10028228867286153
-0.00204876942058458
0.4857967980680415
-0.5986203367109907
-0.5972415691962759
-0.6116796894815759
0.26926380111477344
0.619462942196403
0.9875431405472322
0.6873379771772897
-0.7109768033402106
-0.8033276524843044
0.7434850409707657
-0.46075231904182584
-0.3574995597824468
0.8913767079006771
0.986126999032435
-0.4542317760137812
-0.6677057556968606
0.30460483728323173
-0.8047967945434674
0.8969725169791576
-0.4436596744245255
0.9588052923931609
0.5083019496352263
-0.22971609588468866
-0.5335699607174751
0.046927978446685836
0.23076692051800626
0.8966749674854972
-0.8839852670542752
-0.520602755515317
-0.33014016819833014
0.17661499842837527
0.8927132621411956
-0.5553330528639606
-0.8229073290712674
0.995961354898936
0.07671475191244685
0.3970943452337093
-0.8843594525699369
0.2082929291249375
0.1125414197710633
-0.38931430898259833
-0.04170954895516277
-0.8480436798313554
-0.2863708545473599
0.7917458239084416
-0.669204685509404
-0.40938967843629903
0.9571970134603884
-0.5204503610814801
0.8296546058524541
-0.5464510764992656
0.8752098600324516
-0.39950952990691185
0.47001728092325895
0.8398883124601306
0.6933607556672035
0.6906380091341191
-0.4704611104149889
0.6881153506645173
0.8969162385680215
0.017179592099163882
-0.18043246004398733
-0.0073501843845679635
0.6265878413740996
0.9857447355096339
-0.42380143645443363
0.9040892044595986
0.8566455899086093
-0.17521531410337865
-0.3701326620733757
0.012499790586730564
-0.9404079364520783
-0.6923374744847757
-0.4517719328335704
-0.9039347529505041
-0.10124856514686897
0.2401528711123604
0.794734367695529
0.8933418775882591
-0.9220652867375533
0.06380046050004343
0.11326111107192925
0.3129447451169234
-0.02634923508783782
-0.7259357435097229
0.7996399567927972
-0.21127785725279588
-0.9326225966844215
-0.6243544364877037
0.7406366815100687
0.2853309209068201
-0.38955295646813537
-0.06756744151315991
0.05828766069574498
0.9738488030385721
0.3105222503425302
-0.465256830954454
-0.7754903351373963
0.3804597565595873
0.3342900679390397
0.770247478909228
0.3322500792237759
-0.013020365670081966
-0.28418613958209793
-0.13735213949072755
-0.20350000144913494
0.881118643850537
-0.8453028940452609
-0.3981461684443418
0.32719636577515754
0.50119951962982
-0.9184360698728602
-0.3360316007457036
0.9793542170526988
0.5517357162275573
-0.9385707465273209
-0.588765548261164
0.418223290687995
-0.22446714978229587
-0.6447470069911175
-0.6441505195922209
-0.12844964501274292
0.19537316656085024
-0.6723994292090001
-0.9036941761307481
-0.012807453739121843
-0.396030431864006
0.15863468142579018
-0.49722000866459815
-0.9550577658447252
-0.1807457225354926
0.10338710694680109
-0.11991988937441767
0.8628369174329815
0.9483723591340529
0.08590749001394826
-0.25049219241625464
0.943295857067691
-0.9586365290989179
-0.27583189755671533
0.05913689167781522
0.5438395301863448
0.5890598383196057
0.6715541060757655
-0.682364909114946
-0.23458252671709723
-0.6756580542039016
-0.6156486904812264
0.05885511855043557
0.3388108569189203
0.5515467977075358
-0.9938784276855663
0.8966419708524153
-0.5743044452385607
-0.05342466418175318
0.018576403297350774
0.2242917762964154
-0.8790524017032187
-0.23074699228186424
-0.8512471569885953
0.8687607131945654
-0.5636782470866819
-0.6838245708643091
0.16583407369239556
-0.9375023456001405
-0.49962769221540015
0.9564040724214575
0.2611919188479275
-0.22188737884116605
0.10255050618503025
0.4165565362871966
0.21584069627737382
-0.42397656266848294
0.8619960020397638
-0.9150242744756593
-0.491720539347132
-0.502862987623321
-0.4967120896628354
0.8354487438890039
-0.5417544618416453
-0.4597545649487655
-0.5288933028661287
0.69317973646736
0.9920447377181502
-0.32798308519376307
0.8762603433766558
-0.7925074017938334
-0.07961143167166729
0.22603344321341057
0.4520073763555428
-0.6184407109021005
0.20495452783609447
0.6805257982117459
0.25228596009614823
0.9650464924267446
0.6947582361997149
0.10158404844408535
-0.6169847385030336
-0.15491159793850368
-0.499347902022497
-0.14731184842828945
0.139956107655114
0.4875519849926742
0.3896455923476101
-0.5526563503639615
0.18040519255236026
0.48152219888480663
0.7243966399396927
-0.29661594074815817
-0.24457302084249552
0.2740681161716561
0.5214620516603515
-0.6209801874417553
0.13229405649872295
0.4043173567583471
0.5835857918765515
-0.8580735119097458
0.24255987689918634
-0.44970292263241096
-0.7986945906316384
0.7556852547643148
-0.5217838903721904
-0.504596579751748
-0.3010409725513742
0.24250850564363072
-0.34391122928445167
0.15169923195288845
-0.9240446397189455
0.8275651058875373
0.8159800456391604
0.885629314123546
-0.07995389220532387
0.6248797832944213
0.7005327358429057
-0.730882840153096
0.731585235856234
0.6799599922715418
-0.35122876101588535
-0.5154580329547098
-0.7936955796169674
0.3080983525815475
-0.43848002743054415
-0.4093147898594719
0.7703530264162111
0.004401348305351327
0.8367038341206703
0.23897528470098364
-0.9545430233406932
0.34278773486278613
0.6019365593414969
-0.702446879165877
-0.6157262305661434
0.8924124745746255
-0.8980275168522309
-0.18382555711801143
0.13450386705932618
-0.5667090024822382
-0.758003422673542
0.0025049127133745944
0.7669270144339025
0.9321295986806171
-0.42965489944021895
0.36441733968104617
-0.18351024231317517
0.6809966033007682
-0.12454573650601544
-0.4797154921568071
0.3131446261899286
-0.8082272619891765
0.9069076187220748
-0.3186388782655755
0.8313686391064712
-0.1977642958513296
-0.5517613976445855
0.22352509644877078
0.860184001260486
0.03281730931259937
0.5445156308798678
-0.23119095432005338
0.7763241277532575
-0.6791820983379026
-0.8981859207874597
-0.07081318652771036
-0.572302042255297
0.6763094092862569
-0.5837034392450067
-0.4144496977429141
-0.7559321236514484
-0.5999021988360465
-0.7983276701739663
-0.7059385445769799
-0.279745967779387
0.9264991914312202
-0.07759482304661383
-0.1912747291919241
0.5681648935257293
-0.3126893634397453
0.592593867423037
-0.079669354183122
-0.9174216107136066
0.7616899380134068
-0.28477805445889176
-0.6072256395230926
0.9223295133428239
-0.7903958118114677
-0.4762408936914554
1.0061285407728955
0.8241380859189139
0.42726731469082546
-0.03211514544043691
0.6189491975615965
0.6781863760254337
0.11051187967609617
0.0331472625937177
0.9650883749051288
0.9525743813053339
-0.399623354677453
-0.19370561560993077
-0.0921919488746492
-0.11246068259150821
-0.4333526325131473
0.9455208117702281
0.8075923477148176
-0.13511922986781486
0.6598999968476498
-0.661464413992228
0.8853876184767044
-0.7227988199346302
-0.11222012173465146
-0.2658196125026005
0.49870110015406527
-0.12076276299884472
0.3131985648656535
0.3583948543639548
-0.018879371920825627
0.3020011400258693
0.4870446404393024
0.27082030663930384
0.6343518672996994
-0.6865887560526642
-0.6614741275730988
-0.14044389240693358
0.4129480438711778
0.6988540067198536
-0.5494742140338204
0.6094441229817371
-0.20742996431207567
0.2554431611883776
0.5631878448692541
0.008323253426247493
-0.6273875742458753
-0.712492399109008
-0.12514691566607308
-0.6739712153703266
0.6419889650137447
-0.5486414721144847
-0.40637804584265164
-0.5768187195157847
-0.7648407528385908
-0.24176080822512933
-0.05521469871113892
0.0787349865148929
-0.7944016185543126
-0.10218909778643483
0.6190828407962436
0.09417251182774757
0.9211568646234636
-0.15325212102629848
0.0004726221966953091
0.4115220725823899
0.674844386849474
-0.20260408455019296
-0.539790654674017
-0.18102925787808002
0.052791146535618075
0.4210261331283927
-0.6516662952005121
0.08804704886388218
-0.7900302431814444
-0.35211972226116195
-0.19380906402467815
-0.15936400874912748
0.3596774054624696
0.8739618127194364
-0.08550785990569969
-0.3085787641834764
-0.4674586454515968
-0.5467229111753087
0.669664468107475
-0.7328490351474907
-0.12863020385368465
0.4980898592345637
-0.3463549525894746
-0.7836027430654906
-0.8239940699034484
-0.8805090713157951
0.8990872485024768
0.2235039364299228
0.6155624516338173
0.29412008558239533
0.5533829890700475
-0.44934886673643665
0.8615114578961994
0.308455345147536
0.3871113529529357
0.6116519271584954
0.28013786486540176
0.6824825866242108
0.5602597598059694
0.8346015108769055
0.7436014375106712
-0.30663641572577094
0.6612862730923807
0.06419616207910424
0.032043846486568495
-0.9816782109698178
-0.8048563291876228
0.45025010745637867
0.8982958535901491
-0.328300768098691
0.46889270588926224
0.363200648548079
-0.6598587300453369
-0.7639927353336954
0.04454847021086137
0.33211977694940487
-0.4915609205397944
0.7156244384311651
-0.3931168926715339
-0.7985034634994062
0.9955803922005194
0.9544365522869726
-0.5311722293528113
0.7021441175674424
0.6145120789119122
-0.5071313173887009
-0.3655894340631766
-0.9514503226319392
0.2982228584753208
-0.5794889929061436
-0.9887251834049924
0.7503596590253828
0.47347207578139244
0.3462286974556278
-0.4560620320789078
-0.3413188577214895
-0.45094779787031275
0.531780041531299
-0.00822476664414936
0.28687344036456597
-0.8038088234862414
0.17905911895326324
-0.4843005782649396
-0.8956123191054209
-0.03760962768702379
-0.7502519563465915
-0.8342150067601753
-0.1789162027659892
0.8722831388223592
-0.7683908059873135
0.4630380853283273
0.37603546452973835
0.5370854876710993
0.49076989312869573
-0.965181910636781
0.12086177787550745
0.3643050279853153
0.6233386740893996
-0.3539229576958792
-0.2132313804368327
-0.8628872995422653
-0.7303080534084879
-0.10111541001788078
0.31391083107004364
-0.8269605158539844
-0.9736153404662702
0.014636990204235945
0.6270072468357786
0.08677510037535648
-0.1954973500542175
-0.9992141526853282
0.10028635496028968
-0.8644575697652542
0.22067498070238817
-0.36835681626111105
0.46000828953044465
0.173452222908722
-0.6976634382564392
0.12018704200376677
-0.795428983211458
-0.14006148101339383
-0.8975676085183354
-0.5896093603613227
0.8056194222453652
0.7268468703741611
-0.8262313964351703
-0.10542446406968631
0.9153410819401272
0.7283573156953755
0.06624150846824561
0.4220802272962549
-0.8003200503530634
-0.5054504077855964
0.20304832101271003
-0.8262123278184512
0.07500395498398292
-0.5415959931425515
-0.8012889515666337
0.8397303137674171
0.5353970753960182
-0.24252517709598626
-0.49824873919912416
0.27784600466084375
-0.5139811099340481
-0.7008726737823493
0.9980245675670887
0.3273008723490253
-0.8189796016985286
0.9683528714017662
-0.21947184176866263
0.026394635779807104
-0.3421914827791941
0.07585715295822082
-0.1955512966337265
-0.666303749394838
0.18765582449911156
-0.03632750543551019
0.24411771151804945
0.9738560367947467
-0.8085452675557576
-0.5848530150089958
-0.553985597375021
-0.28517383145821906
-0.7611631684486505
-0.047987370074659835
-0.17416573538169758
0.514680384704587
0.39428668609806095
-0.20453154813444743
-0.04652728315552131
0.1638041650323315
0.2624000468477293
0.15776863071943972
0.04750465319145035
-0.5558265534240653
-0.2580527372945437
-0.7201090686173334
0.3297715848910181
0.0425171759795047
-0.500261743129945
-0.03324697504038099
0.8398443170356797
-0.8021629286472681
-0.9867191722715152
-0.2892255654330397
0.7772919536585892
-0.8625076686521912
-0.3236357501541782
-0.647132009621736
-0.32891043310882445
0.11490052521087755
0.9794820393052468
0.6750351992593032
0.634422173801232
-0.6111467903523369
0.5898367790301682
-0.8420784526945072
-0.4281164184482327
-0.17754873997948525
-0.3857595433282603
-0.760282101121437
0.4196429480654458
0.3963436017922333
0.8359522065219499
0.9350092964793927
0.6017912898996984
0.668473246814883
0.5571766943430421
0.30340098295203255
0.7908238737175819
-0.9850789443232201
0.02168594569920704
0.29294167267687976
-0.11946170185774979
-0.838851657736336
0.7790636868440503
0.5816002767921599
-0.7406939125293773
-0.72575142469518
0.18088188821992326
-0.9699128572004773
-0.5592648373812815
-0.14113092933183172
-0.9222638250378049
0.7111277997932801
-0.5267406516647779
0.1204404347731842
-0.24364820652613198
0.129531714392035
0.335032079297263
-0.7377090696383901
-0.2703579682317752
-0.3187961962854857
-0.7365466589906261
-0.720162306648632
-0.6932420667311106
0.5330663488909732
0.317972430803813
-0.8190378971735075
-0.5205325243525808
0.7822597411065492
-0.5247770991838757
0.8994947806896431
0.6387230743000496
-0.7391229794418178
-0.4941069534179358
0.8341628588022014
-0.21035577359486346
-0.7323057863380307
-0.9662142661099647
-0.9126817050593978
0.9387265723992699
-0.37373673368297233
-0.27310473098479565
0.5189088345585564
0.18984254022916636
0.08094196799293853
-0.6621286927866364
-0.1490660177941856
-0.3921852769585762
0.4093533735189833
-0.22697213382624187
-0.6741387702968209
0.570612409636915
0.8078502084361926
0.43758903690157114
-0.7027951441138496
-0.9205635725142113
-0.10470232279699282
0.5869275072057548
-0.018268616029185183
0.5858147784155224
-0.2766109308662693
0.17583829803916387
0.8264020153350432
-0.970017216226808
0.4429055254158153
-0.15210602179268168
0.2794884820340597
-0.36288923481309865
0.10062423781350027
-0.5717363297450676
0.15385579281003472
0.21159026834372194
0.4776491840502831
0.7444773403636091
-0.5450094355195816
0.3072814700502849
-0.5004657930079656
-0.9814595393526679
-0.4656043864163037
-0.0891142113257596
-0.0648289467958066
-0.5972443903925186
-0.033582589040767274
-0.7063091266751583
0.944071562909029
-0.9230878043202225
0.9703818731982732
-0.6592703264445922
0.7005623916402537
-0.6893253584310015
0.6133169127486099
-0.9176455656076393
-0.266416289736657
0.6218907373934899
0.6495022678269697
-0.9386410734051037
0.2695666162508931
-0.2673447542169543
0.6434374662745933
0.8244210612743169
-0.13305827553969177
-0.2957342725418436
0.9891214356156688
-0.2516523453617093
-0.026707656603581195
0.5096246028593344
0.9530345364501353
0.6320771573396466
-0.10954647478995339
0.11251532891379545
0.849604800952726
-0.14116207564608504
-0.7613950502969795
-0.9964561759648974
0.9046624133924787
0.7181618758836247
-0.2015452039998444
-0.08312324293036703
-0.9348297172247231
0.8354492088325371
-0.4616960401276886
-0.5328045729868628
0.30912991620968516
-0.9370291441663928
-0.5965604207178832
0.38683951851678755
0.96941864613214
0.13948202252708505
0.14736150421504315
0.12553869148975366
-0.5669642169968615
-0.8339039356782353
0.2781291370650788
-0.14069223634610248
0.47869446771612106
0.753285828211664
0.7356222011130522
-0.6438799258379441
0.3080201156410409
0.33693137285914254
0.7850351893930888
0.6598797479906033
-0.05832080089412058
0.6471320962461192
0.026096437513301932
0.25093814331676473
0.6876690216925873
0.40070210376445
0.694146034162731
0.23883110814685185
-0.7336904273436115
0.3560348997009665
0.13945156388298754
-0.9009580855834692
-0.8338797833105164
-0.5472187921526146
-0.9092245679839678
0.6635767700924551
-0.7236330659442182
0.8840865517130566
-0.4058736837316746
-0.7893022072787004
-0.6297268507489668
0.7055641596154087
0.7303970264536028
0.23011632412507677
-0.019027365394810647
0.808090080020827
0.90580440241338
-0.356966106867842
0.6901332751097041
-0.3278952639659383
-0.9307878784534535
0.07384484461706509
0.46401663206879007
-0.7304609381173706
0.2321689620456615
0.5446651103951622
0.3646122904543438
-0.4851418268286948
0.30205623893678146
0.01343461240477858
-0.3130251838273244
-0.3007989125198259
0.5950731671351789
0.6060506098080812
-0.5807250546022867
0.5671400217202036
0.5869404683427675
-0.18401021710396118
-0.6869087432874272
-0.8790443021384017
0.5995051644298899
-0.32716550277797574
-0.599697102343373
-0.7410061821839906
-0.5548633856791737
-0.7065600702096931
0.11948880303056231
-0.8691705702319847
0.8116935998234662
-0.2650434824464465
-0.09862749971835186
0.07642486604497031
0.8277619362157499
0.26632670928623714
0.46957185511339894
0.970344413985106
0.08435046389879867
0.8976690359069966
0.1370864420367899
0.7223461793185006
0.22147688249990083
-0.49016925812154966
-0.09933267400628673
0.2513986742483147
-0.30176141840952264
0.4612780945202355
0.7761676439490126
0.14047815893311388
-0.8304003647655286
0.589811733957736
-0.5868985235322737
-0.24949890429091637
-0.9135281932475234
-0.7046757568764221
0.18995018705523337
-0.9918482421287993
0.6666082560427237
0.23656363968791105
0.4715394613721539
0.717774788928444
-0.34009713000665054
0.017514862924494334
-0.049374332490442804
-0.8178104091794482
0.3929192646613758
0.6685356331448938
-0.12929145153103602
-0.8213575961920773
0.7288271347662026
0.4232671217033063
-0.7795426040979574
0.22472864177914628
-0.5168950479739952
0.5718424438942511
-0.5657737639880429
0.42941020334659785
0.1006529938083014
-0.7624479915333311
0.0032887489217932053
-0.23701572477770538
0.44520168832001916
0.41525129206332867
-0.3659817852965388
0.5316018704134454
-0.8074339071359012
-0.398184866585983
-0.7213108164079415
0.6595392255800706
-0.9274287187800194
0.6954500678515898
0.24146327873714146
-0.34335099021346766
-0.566203829883295
-0.45427336199231066
-0.42093045466668755
-0.5826940360601726
0.7191369520933827
-0.17880838577499517
0.8101456376885121
0.18393934768539097
0.2892759424448064
0.6212166430852994
-0.2998116395564775
0.0991104450428244
0.9240179570770202
0.8097379497754644
0.46339036802434896
0.7657654546346859
0.709432713586607
-0.7995804399916845
-0.16056062965336132
0.5223069965155847
0.8003967237996964
-0.8476281539719508
0.27920283510489907
-0.6826921823889098
0.6193346726571972
0.5062507963558198
0.704394018650545
0.3152587783619559
0.955868835656759
-0.6134545326290978
0.0016145351549438634
0.43111599679967016
0.15523099250645364
-0.5621909435926666
-0.511319740154481
-0.13536952302516947
0.8646919398409709
-0.6316863673664861
0.1677275962268494
-0.30590320924268033
0.6503429501823286
0.0072400395174356084
-0.914503411319232
0.04224930826440687
-0.4158821692980399
0.17128393142313336
0.9519675299011794
0.4948440496309816
-0.7042238870836823
-0.06678777685517467
-0.40028737740947684
-0.43564601993765895
-0.37888822403455624
-0.06387685557539691
-0.341955483741341
0.20278191927432165
0.009093158600093076
-0.8299211822215184
-0.28548270483489324
-0.5924927519277312
-0.6365634212090301
0.25095815799745624
-0.11828229884881025
0.6465534247914635
-0.6175955892613001
0.7413828994235487
-0.8311955595962399
-0.812099080610425
-0.06935052338062297
-0.05484742600520298
0.23977272991804077
-0.9963204589675656
0.8547576211758026
0.4953933690433301
0.1754892912829884
0.019022529172511682
-0.6491536971472902
-0.5567837851638187
0.8618703878467091
0.04117180775713081
0.5052891897612224
-0.1662631052322031
-0.0800390374981382
-0.6809671645319844
0.2845476256457025
-0.8982641949482099
-0.09300918036941032
0.19392071911549505
0.27444701951228123
-0.1711007759212173
-0.044642906688613225
0.05494262444710884
0.5205251328689433
0.49371295234946366
-0.8165612151119599
-0.2375694720634719
-0.4290687064282812
-0.49874068975075625
0.20921686554969132
0.9297158482847665
-0.11205582503186251
-0.4306574081555604
-0.04881086206234664
-0.4985747293548486
-0.9868559092099762
0.4190805094061404
-0.6688451571909843
-0.047381754058880524
-0.23819787082182786
-0.20747530088531072
-0.2596883456138578
-0.3643407053490996
-0.8779073626099129
0.11679804913988032
0.18871808773156873
0.21079675702232098
0.14170622095609126
-0.7066164684901132
0.6415838578049485
-0.8477969053346088
0.9008089886887092
-0.7521469765044644
0.4750042931157165
-0.3309575746445289
-0.18642269989582672
0.7854384635413962
-0.9964204426919269
-0.35715507442070804
0.9229770684624317
-0.4747307314948942
-0.055049742053414175
0.7598096791847229
0.3915304927965058
-0.14132650160771992
-0.4043209821705175
0.18985547465678046
0.9510549941584332
-0.921475984888585
0.4988387568564945
0.693059140161822
0.288757118642834
0.516945847051879
0.9673143645491018
0.9096240170281037
1.003723258784336
1.0262468028660579
0.32960812559438113
-0.2982658655547326
0.26323829291138945
0.02877958180545908
0.31016789622822266
-0.3587263287190584
0.7943265545753282
-0.998842185906015
-0.022995255717408125
-0.08375470331527413
0.6045591609756726
0.0752721615728058
0.5177030192132795
-0.2751139306161108
-0.07518332957369543
-0.4767852061872548
0.5781207636666272
-0.545772304501962
0.9399130090929577
0.15808892093299853
-0.4600001137056243
0.929340007527132
0.6578507324336158
0.7308700650270029
-0.8129285459456098
0.4053614402161756
-0.602826550632457
0.22623188144139003
1.0074766131895567
0.8526295482714644
0.4268972956250982
-0.48914074071450186
0.9601008353462689
0.636618092562535
0.3086777132899281
-0.28011361565891635
0.45295529299544013
-0.41783865505804607
0.5897483321781065
0.5850317202180426
0.21726922902783383
-0.6895863772303179
-0.37760159849774805
-0.24581188180664154
0.6332573175774521
-0.7303710186048095
-0.7689154235322178
-0.40340238836404196
0.9360631050598069
0.009527711256124264
-0.750145264056916
0.13601448834950738
0.3820090576621016
-0.03057460926213649
0.08588113321459898
-0.4239466865232847
0.3832828472974294
0.6139883386061203
0.5529497265055099
-0.2724486435454106
0.959439943545602
0.9525247561575234
0.08520101570747102
0.11760490306511406
0.8238299535695499
0.6835766517884347
0.7246501030894582
-0.10872042380369754
0.5721176802165959
0.11742843618335659
-0.8037196554505759
-0.23550534448238838
-0.24741944349742173
0.1305131936716652
-0.00931317468594122
0.13282935195179366
-0.7609925895019304
-0.7183348642455322
0.9780772731795623
-0.6385204537877127
0.33642252232471714
-0.06186705829538198
0.11956517419934823
-0.3230777540758857
0.7864284918698063
0.9173612448395951
0.39065892400581775
-0.4833415183260724
-0.8894673936495743
-0.7233771647711167
-0.16247295664761674
0.14723894364779447
0.9850140878163556
-0.21617207674301075
0.7242117761192788
-0.07178518883260022
-0.982282342355554
0.537170673155391
0.558079457851472
0.6711958965067346
-0.8711207962308545
-0.5792066777125078
-0.8282449382767029
0.3820864573347474
0.6638670013632224
-0.8646651538623202
-0.8315261274455054
1.0150219403028973
0.2278419527721245
0.8289128270560248
-0.07323099985650615
-0.7823452347698594
0.029633972644343427
-0.6119336392845743
-0.3779038904790352
0.7972335022117557
0.3197246750830079
0.3529755127843794
0.504405088981444
-0.13595636869537325
-0.809950376016956
0.5792909531914676
-0.8062404271851058
0.02227101373972158
-0.0381292105977038
0.6014265915464349
0.7606850683854459
-0.012863397946927618
-0.3308625811162618
0.3661816328361571
-0.7239078327302042
0.23137655796440917
-0.8508346275135786
-0.08062845013659846
-0.07084842951951777
0.7965291169581
-0.23234857463150976
0.6355389781113897
-0.7589217506288376
-0.8756403041791653
-0.6528374784755752
0.10341100075305268
0.4825708210446677
-0.12098404797685988
0.684203300297939
0.47214901085130995
0.4925394774362725
0.7719044218850675
0.9492794399715037
0.6105669146496269
-0.7422684674037477
0.49611762089629613
0.6423469327819209
0.8807050506876186
-0.6693862199155199
-0.19197616694445138
-0.35226373098279573
-0.8228039149475832
-0.3079708547007499
-0.21167562370725318
0.6373706950573607
-0.02002323754232612
-0.2665370453887857
1.0464133170518397
-0.600309813438614
-0.594252284090579
0.7884285412505292
0.24477199870477864
-0.22428186242329917
0.4907463128358229
-0.4268963070454232
0.8256010350823736
0.7517806485897144
0.8532061791557033
0.32940103634175094
0.7852143110988693
0.8375573367916582
-0.5543395028171171
0.09557633056689506
0.6424185370932738
-0.21211013334466228
-0.9415388639409615
0.4405037239036646
0.11161645061029099
0.9035177757067203
-0.6921791760366608
0.07790600487188346
0.5524273805306564
0.3985613855710872
0.9509289690268479
0.8271295348224595
0.45517443714913564
0.013322084519275579
0.46040703624224155
-0.43851521646314334
-0.7188452016434549
-0.9014501385683654
0.29198193046770354
-0.9011606929012357
0.22324276158724213
0.37008482818692895
-0.18080698236544793
0.5280668534133135
-0.8090803369025306
0.20954155526615703
0.7690667365339916
-0.2693563109510742
-0.7221860148074469
0.1560290936575563
0.6953897734351162
0.4990730935280657
-0.935240466814678
-0.7198661907899071
0.4432173697852828
0.1867543933746061
0.8525461738858736
-0.008170517001099484
-0.36355184802682977
-0.24101476334562638
-0.3706547586965462
-0.25715768381946047
0.7319723890907255
-0.1393897793718276
-0.6025663747964215
0.3079047606530558
0.25948630680546825
0.8902202490509483
0.8337995077616657
-0.0593813489046015
0.9273895243251321
0.8541925194100296
-0.8947476836662803
-0.5158965050532822
-0.3435487385790724
-0.479359718679494
-0.7036175402993736
0.6285715237438603
-0.09003194052087986
0.8894808726431052
0.331646305024002
-0.15735798432966192
0.0740617363203032
-0.14305055581703277
0.5459652373429177
-0.00574020231048671
0.0022229996776832192
-0.7390061988855788
-0.38233436324148334
0.7391634321762466
-0.9990598895977354
-0.6844035770207478
-0.932939375332322
-0.28587698007058426
-0.14276578657417738
-0.878515662181436
-0.36608698140826573
0.9921812923324033
0.6566004340159572
0.6164842784637371
-0.12310361120128355
-0.6528335120068884
-0.3936018026560284
-0.6717880359994702
0.04510484357604572
-0.7320578677493563
-0.7239238025593558
-0.24359267104520954
-0.9283235772422959
-0.06479506737740305
-0.3217385822786701
-0.8329726537739351
-0.7745507779982158
-0.8744903171045133
0.7204873063042369
0.7217679764303075
0.6684922640859543
0.7568741639572432
-0.2894368974358742
0.8927509783272375
-0.6738116516780884
0.996150018045405
-0.3655866888822223
0.8026910042753882
0.9989865630814182
0.5055242752148923
0.02745372169372474
0.6561290327361239
0.9165502765983637
-0.6283999035962887
-0.3192909569128346
0.7405152115266773
-0.17448883296728945
0.3459650361645822
0.03901993446531427
0.6696718624880958
-0.8153800165898657
0.6514787717833518
-0.7122931301605823
-0.11210334140352095
-0.5112142747783509
0.2050272069614369
0.03746270484674509
0.9120042474557595
0.5598087829145151
0.07937563016080236
0.04477313703956923
0.9460878167309195
-0.8074675716943203
0.3017123817262792
-0.24968308659552413
-0.9245668005449755
0.5816917821264499
0.4307215877619456
-0.18337042605100634
0.015032531706153327
0.19831935470040785
-0.21599468207830297
-0.24163164666221704
0.8762841925578437
0.41033688553245656
-0.3727087429936662
0.2795575608417772
-0.6991376263548176
-0.7803762037999703
-0.7307220261268114
0.016950361890760112
-0.1117269489719728
-0.32531341052351476
-0.1407204227408408
-0.047490058084560964
-0.486316601254989
0.9401157187355698
-0.17197567713332318
-0.7146016316162193
0.15024721551014875
-0.8529964416040114
-0.64321397896969
0.02625341881379061
-0.023968741200531312
0.9576507036191498
0.8612353839029232
-0.9713266776573842
0.20485370990469895
0.31059829428178665
-0.24945108177382624
0.4969686764734249
0.2971533523177334
-0.6483272926528642
0.511078249694566
-0.6120113455343724
-0.5086183449084701
0.7719992919278262
-0.7299729047522546
0.999114498854254
0.024269720365361656
0.5955690985477416
-0.7043541593271313
0.3443402878453511
-0.03246652754088531
-0.7739913892809065
0.587847517670255
-0.6846592868074424
-0.19518156181568838
0.3591288366574372
0.1334446059573191
-0.3827561949624296
-0.9213779846988647
0.21500290783574316
0.5574644906930568
-0.18124374686323455
0.11027259960934759
0.776456317251766
0.7167331951818487
-0.808655620898856
0.2989183683646863
0.6806681183223429
0.7194158997867901
0.8396152443652117
-0.40155680311568187
0.5396234464775839
0.2114326842159128
0.20842195777949213
-0.8524162673203795
-0.035449666819300965
-0.284489677451374
-0.7632386759814972
0.767245310692935
-0.11822688713614028
0.7343497909440477
0.48815589858636266
0.8246722033680516
0.23963101591046937
0.3842371953976196
0.9260920287511918
0.7304983686431002
-0.6059419993945239
-0.9660278868863922
0.03455713525600694
-0.9357078065256164
0.27618771069335823
0.4422156631657477
0.22942590184250622
-0.558615448016672
-0.7769722642644725
-0.8928325310490101
0.011964630579689953
-0.542886244204507
0.8285565113259576
-0.5592997846467307
0.8951640773576718
0.3603467793894808
-0.3511082601052364
-0.049517132002312565
-0.07893549639267997
0.28933490930308503
0.3993664032330033
-0.4333264912618051
0.06916139384970105
-0.9355129710570091
-0.02091937225832895
0.8042820515612257
-1.0126903237219071
0.5649634081598807
0.6238816632474722
0.3638573855498863
-0.3370812707352972
-0.27085326537402565
-0.09988990310429409
-0.8725041554815711
-0.9881132564764395
-0.01549158514148886
-0.9851244481855437
0.060883784446330434
-0.7643898056158225
0.9796631170624751
-0.0029919672700689463
0.03189950094849104
0.5130433235150738
0.29708013225700086
-0.5119298592447289
-0.08490817959327923
0.6809841450488178
0.7558845772864163
0.6473669061925313
-0.5034665546459594
-0.5365600061202148
-0.30610913798894135
-0.5309974653396305
-0.7181801516122093
-0.4200688707202905
-0.7677240234495202
0.3230661307791372
-0.8327366267355517
-0.5205298477197392
0.12061007584017203
0.09683903039926517
-0.45794211345552427
0.4158167977874605
0.3285689003749247
0.19269118481395112
-0.39966437955804485
-0.5402318736497365
0.40788899714273125
0.6805985192130005
0.6627799558528713
-0.8074052034544013
-0.011053159895582422
0.9104303675506636
0.16664712995069866
-0.5806212037708177
-0.7649548979974838
0.21819637487509733
0.008783741603730176
-0.5259142576640589
-0.21919710522927024
0.8226168949100219
0.9631919605525197
-0.5339580232742782
0.9493653475383818
0.212894987341148
0.6129286601121524
-0.24126659520914326
-0.10875880994871373
0.5249538771091555
-0.9956105212738936
0.5613844210294452
0.6306065562407803
-0.5235597830249166
0.6258587322345396
0.3552033017782895
-0.3318142689881006
0.7792401242901886
0.5691873023839502
-0.3478033961093641
-0.4305163545739541
0.8556626642058712
0.3955912043606711
-0.28617240614639894
0.5706791067108014
0.1672513605092737
-0.4874028553616223
-0.011880313459994624
0.6363508102755867
-0.9591060360602084
-0.22461760406364858
-0.1373202590179773
-0.9898244622492138
0.9218322866488475
-0.487509517915699
0.548262604387493
0.875686413787125
-0.5567379394373733
0.4512920007235073
-0.8558361408543265
-0.1702427912298239
0.9786963676101232
-0.2318020031625922
-0.31582931579902235
-0.8055995784106954
0.012059293389778855
-0.42768143462252506
-0.6789096208748878
-0.25773717473014474
0.11831830863369655
0.34520226133285614
-0.0937288782341567
-0.004060039837810216
-0.7025756963352648
-0.9468237397961152
-0.6826144340905479
0.2586089648067796
-0.42249385892342145
0.5582454344821437
-0.1702778415233439
0.3332415824101829
-0.41425818806608516
-0.15791902671998445
-0.6125633438902115
-0.35329571827194456
-0.028841307177500664
0.42742032820720666
-0.36030683635194616
-0.8780918075077027
0.721552173357242
-0.7896314597161582
-0.5478836524297209
0.34733898054649637
0.3215632137334439
0.13192833504810106
0.7322658588201872
0.30119173391356996
-0.1650566888859327
0.37672201253384946
0.39002574177611077
0.8796509355521315
0.7530808349092909
-0.2825865572508881
-0.6502378955908956
0.6177633964572735
-0.805051638201378
0.41626281775847496
-0.1282651355228064
0.5890804257586665
0.5778476576807353
-0.7092369146844193
0.9458589756454213
-0.14721482566239164
-0.5656710763964228
-0.9250921577767803
-0.2422780466612766
0.8561704202348788
-0.0060272893670496016
0.16985307846925463
-0.7966445933640869
0.43693116480792116
0.4192891242956171
-0.2672962179850236
0.5792893514934058
0.7188184056641856
-0.8630748865399599
0.42314895605573105
-0.7152015695028938
0.46660958981422374
0.38337285912380586
-0.34033093626140043
-0.06735398271478094
-0.7071692955262823
0.0636587810731462
-0.18552027352582173
0.19598326155360568
-0.9113682278576326
0.5322328384614469
-0.7796979475579306
0.5295250171006738
0.4176345423130974
0.4885639901391843
0.7343840288101837
0.3943566217625176
0.34038671088729133
0.6682332874249914
-0.0031104468146166127
-0.6313349549555649
0.14761378670534492
-0.10442539710618683
0.18289396581263098
-0.5835907332062796
0.4720655900974448
0.4084947280247876
-0.7299756391523315
-0.2749350541816933
-0.47709636807265665
0.017496573453752013
-0.03273493870183553
-0.29609458540553735
-0.685155634390605
-0.3676032673728296
0.9412446417702087
0.08182859362816307
-0.037081458861878386
-0.12168017047413525
-0.7824380052096203
-0.8237754075537986
0.34785052903883673
-0.9626276453132407
0.22685522564208727
0.16716461563667218
-0.9489576139731786
-0.4925493942050647
0.4266891100565915
-0.8591276861475408
0.922062044657907
0.9119246137646816
0.43267134648559835
-0.10416070343544095
-0.7704123207876863
-0.04800227523129751
0.8086153858023087
-0.21688220007631148
0.10193594105276012
-0.22795644632274173
-0.3769758033524374
0.811373261331757
-0.12429456551401127
-0.37040082342269376
0.8471665651808858
0.12276458212997542
0.2645033638263531
-0.9197059039774913
0.36541856973775677
0.0967594962471452
-0.33790564816825386
-0.742864822546034
-0.8714999175722424
0.24806717173755777
0.9587641076088913
0.3901509965018253
0.20399273322716205
-0.6450992093748801
-0.49549999506595693
-0.9684429907067797
0.5835318320627216
-0.9617214457188122
-0.282074950385552
0.22136592898255636
-0.9444972104044138
-0.99365494721766
0.08381088591746332
-0.6652431972913824
-0.02397154978172393
0.09601982937100995
-0.30002050536638714
0.3181536216886205
-0.8013676212460361
-0.6537653963057847
-0.6558046294599101
-0.41616902365618613
0.8551975570932231
-0.3899594677187215
0.8530166870161535
-0.29853226844148006
0.038617882841252574
-0.924208870632456
-0.8510555463259133
0.8777833336965035
0.469677452913567
-0.9339429035404976
-0.000990779620823834
-0.4589942208910831
0.8549095202566652
-0.3374144851811791
-0.9607383518799414
-0.01617429804884296
0.7280971428196996
0.49157435146874473
0.6139774703164123
0.37858914052239245
0.6976797308593699
0.3856852339317056
0.6047469248107069
-0.9926881238067977
-0.3686324604450947
0.23874732525687037
0.5520935933583238
-0.28895437599781415
-0.4600393778974331
-0.5526353687452177
-0.6418848549332518
0.6529294796112635
0.37198962032254634
0.43000702700957594
-0.44080263121484753
0.6943427948047094
-0.09992089268494975
0.8264517536269333
0.71243259883698
-0.3548266685160102
0.9910091388403515
-0.3142015142897199
0.006322346763509401
0.5646310759967408
0.7476111373988041
0.14361672509883672
-0.02062082342974536
0.09190416410009661
-0.633256744143452
-0.3226222110691102
-0.3401539237994807
-0.08336816356346466
0.7311048222278484
-0.6605363988040855
0.8563318026441122
0.7930077818598398
-0.24419352448514575
-0.2610297538176458
-0.04155652908546703
0.4503650367363392
0.05457076818804096
-0.8262757516070502
-0.28686004739692383
0.42525686053873546
0.6029812701105872
0.9956042098904225
0.05068858295344714
-0.4049859606257702
0.7986763069731677
-0.741068090516233
-0.24583114094327962
-0.0044560449895511
-0.8750488406908312
-0.8155390613631045
0.017446856502101683
0.5745333723452863
-0.3298714689641599
0.7058108605009951
0.5827853602521329
0.4311955611634976
-0.021641825622841206
0.44892656470652387
0.7505937782213274
0.5530636171396546
-0.8434336179720943
0.09742395260836356
-0.32022683634597293
-0.6715982163115225
0.4571020683661129
0.099684290212666
0.6353448492562435
-0.246646796966716
-0.3353490379143843
0.6702859192191428
-0.9877979814166998
-0.3086408614174147
0.277805396658694
-0.23400540029485925
0.4965270538585898
0.9354260182144747
-0.46554708413699153
0.25413973426127334
-0.4796986947820004
0.4837259679777793
-0.9849122714948256
0.9135015878854811
-0.1542554728406805
-0.8777325918680755
-0.46362753891063263
0.6077316070030987
-0.20799663986974234
0.28692407662741914
-0.4086792632365549
-0.022358216860739244
-0.7929369745886942
-0.7146477363963399
0.33283222329574413
-0.35639556648386694
-0.8453095466309359
0.33360796918776936
-0.6031360270786131
0.6152403357217386
0.9697374635792508
0.7121549355046453
0.9569886140340773
-0.8243334322170737
-0.363695546732268
-0.7180025837226712
0.7214206246009256
-0.30240072142249597
0.07923594337283985
-0.6087704682797851
0.6162135867216639
-0.6402495896667701
0.13340308068453502
0.8578057602228703
-0.7886281809431779
-0.32892509694288097
-0.7264603689344582
-0.04317952214860114
0.8001556410655185
-0.5162042002099584
-0.5972324769311486
0.46816162251722515
0.6778443840785184
-0.9744506580475644
0.6000425022821767
0.08893367687801611
0.19309360484201266
-0.3737758448269479
-0.805986405096506
0.6130789021703634
0.04537888712943188
0.3032243814584781
0.171364340479241
-0.8014436044063508
-0.9239903440503304
0.37629879635524643
-0.8304980658077288
-0.6463137530266517
0.8970063998953349
-0.5505127066133796
-0.19411586213875115
-0.28337042576559723
-0.3203437097447101
0.0698056554901145
-0.021531714699951937
0.8961789280634365
0.04066042531269641
-0.14840084864987765
0.41688374522746896
-0.6667117725579346
-0.7958527541730818
-0.4541616491412752
-0.8014192365607813
0.7662425819672986
0.6750150548493452
-0.07046509670869062
0.886267863636694
0.7704848823571876
-0.6426245427421915
0.2312620950830139
-0.3848246097038113
-0.2949511153934388
-0.7005565484525912
-0.4271432454290554
-0.5180850696616776
-0.24609236805163306
-0.18541790350267545
-0.47681310548583006
-0.9838952323483448
0.2904199713743187
0.6965661037843879
-0.7051980866476675
0.833276622053097
-0.671484407559131
0.3714083409066579
-0.17260008595087356
-0.851527133683579
0.8947392156608001
0.8801193997141697
-0.14817586136665747
0.276530483315313
0.6190532927845535
0.9190387457567071
0.7975218911925607
0.6444117001543969
-0.9551369286118858
-0.511800120098922
-0.44541644436571576
0.7645637509446203
-0.2230852914563633
0.7189949787468974
-0.13014432234015788
-0.49158415983562415
0.4230596628231257
0.7243827116133662
0.341079787553677
-0.8082102457262016
0.7573781768776521
0.20595010230411023
-0.17406516235329958
-0.018342115354255832
-0.7261220174393642
0.8892278572308813
0.8150772333992204
-0.0839297346007362
-0.5665250753237201
0.5011923220970995
-0.16357824273985405
-0.8762277546297556
-0.44757519738731155
0.234185837446126
0.04874043064853143
-0.42084648035194344
0.1833165787418843
0.5204524373059306
-0.3474874025819627
0.4616357375010906
0.7823853247382154
-0.20832764826796227
-0.7498904358022339
-0.8049338661815957
-0.43758247695070823
-0.357323692852526
-0.2795138600632254
0.6117047346140919
-0.08499247234383603
-0.47806961010904536
0.9355706603081665
0.5898902503882981
0.41780423852957593
0.9510730187819525
-0.9900846527842505
-0.19325099654881497
-0.8714479037811949
0.9310674928117797
-0.8777482254496218
0.7676029953272225
-0.8358429294091541
0.5702932087945677
0.457851721611064
-0.1517453243226927
0.768654097873178
0.3775128102113853
-0.11552646165638873
-0.276316582860421
-0.5896908129253496
-0.04545031822180045
1.0067224184426293
0.10309203865248251
-0.38122769907394394
-0.13362194296828164
0.8893643475782356
0.7219662076687954
0.5554735444336885
-0.9294612344051538
0.343957198960772
-0.7191953107243546
-0.917733883813505
-0.8685001209270524
-0.7902142804010616
-0.6021224788546392
-0.908676074038126
0.2978412071687717
0.8642797537873832
0.2601645452997683
-0.6316305488009069
0.027373889946528913
-0.0457380976249628
-0.16102608923430523
-0.7391158218251475
0.47574684108039994
0.7282083996337995
-0.06643054798584548
0.32630172479715297
0.0204140176751757
0.4511352119728405
-0.3397805848665227
-0.04313053006476458
-0.20219555746634688
-0.9013900957714216
0.6317851699547052
0.8908825112492946
0.7319297957899882
-0.9558550448292363
-0.2263848681372847
0.5982973775768633
0.2654786344204589
-0.17557633743038334
0.7242478927248795
0.5165872195903553
0.3769907348061865
0.10652001017873425
-0.7489157290035202
0.6486193353869155
-0.36156585634029703
-0.3222036958834754
-0.3609519397450021
0.9783673723189991
-0.06846656802226436
0.6438599587899207
-0.002472877891182543
0.05879977770270627
0.029715013707393507
-0.21088409687025175
0.9759569006519231
0.8881577020165486
-0.36788126458514403
0.5290762829062865
0.04733884448676674
-0.12868021477603542
0.9336156344556685
-0.27410584583908204
0.8354190812037842
0.7499773906809104
0.05707583940287969
-0.4206925720975093
0.885209684653109
-0.44926704496340986
-0.2612120788844893
-0.46080299323189977
0.6282034577404476
-0.6826479155929801
-0.033031341599979655
0.5888990446173268
0.09756660257125636
0.1883076015230598
-0.6695415111612433
-0.3856128045085038
-0.9290457386054322
-0.8431522096363809
0.6663465147440599
-0.6617357596348498
0.268262896075554
-0.33560446605943717
1.0032205462286037
-0.18463351463013983
0.7052501635711709
-0.5585472469635235
-0.5574792361625255
-0.33863692954000274
-0.9349254193326242
-0.8696861783325397
0.240561267797715
-0.005302091188562521
0.583993784865926
0.5179066566762635
-0.15300381475699232
-0.5516454990251798
0.6567046475765734
-0.25330046762762926
-0.20729741668467502
-0.5140348664886514
0.5792666903154908
0.142211223863529
-0.5907030583514493
0.05897755427322923
0.11014186572716884
0.13041836266150644
-0.6204192881051246
0.6876594718626092
0.8038999177611781
-0.1808564881927555
-0.5981768813173306
-0.5333995565059058
0.97747961438063
0.4666275875498519
0.7078419715391281
0.21837204752499467
-0.14453764302367267
0.7006087579191334
0.3102470539391026
0.8953199467394954
0.6633659112116661
0.5149208589628668
-0.817970020250743
-0.4968386161382239
-0.5943266065530459
0.025157185973286596
-0.33113293629781504
-0.35919534144282844
0.1764608858867147
-0.9038839860556468
0.7741034347814549
0.4038609608739068
-0.028996175451563928
-0.42888415249340106
0.40344682534481235
-0.9077164873848997
0.36347809269074993
-0.5514238054979129
-0.45078979615180553
-0.5777715783888145
0.2021255478796384
-0.4301250725908357
-0.3428665508773486
-0.39354697223978813
0.1406759448875099
0.05158488182958968
-0.267959760742117
-0.9411500160023158
-0.33884420387462816
-0.5149984326219884
0.6238658202434291
0.272712011025672
0.018321803088007016
0.18945714655665702
-0.17206044152071315
0.8319416448437275
0.20884438816478135
-0.055710580998148476
-0.340586763493327
0.10466170629626219
0.7711032146571024
0.9447481434714641
0.14082162392041067
-0.37531642476378196
0.035993211398227996
0.18860640052762123
-0.9144633845243663
0.8078517147444494
0.5873319731662866
-0.4357875388393652
-0.8238353926768988
0.08086082926768315
0.3601033120554751
0.8852672964550562
-0.7505739438733265
0.6690959444890191
-0.5573963494057508
-0.4191475831914361
-0.5346451645817957
0.44102882469264904
-0.13498503440466425
0.8484134192437152
-0.9891451527067101
-0.9525873265996537
-0.20463468234979215
-0.9737234272932581
-0.3618172964460034
-0.5192747900092228
-0.22070326882217653
-0.6113800138357594
-0.30177179649582636
-0.1636618356387208
-0.8569613859793961
-0.49728840044859657
0.5000319397882335
-0.6333957367267052
-0.43918225359189306
-0.6596686105651183
0.13011158864210923
0.8947818705792875
0.7043583759987173
-0.28324561692628
0.5118957791420639
0.7669659706166392
0.6529294234914598
-0.9832509774370558
0.37655748141345335
0.6395114710255432
-0.7693427936884023
0.7857072514560772
-0.005006018754070807
-0.7452370635677296
0.27931694343094265
-0.9601186245456765
0.2060839946807844
-0.847679924462614
-0.8019971853644733
-0.16603470987813015
0.43902378097435024
0.8455500042244557
0.5696012753148839
0.6449500298142088
0.15816917562168756
0.5450080703208434
-0.07972062012227257
0.7231848369800045
0.18762314716666006
0.7901747562668006
-1.01014729290279
0.8904319254218008
-0.5770280864008444
0.25840531633097474
0.7816435064691682
0.9885907057745783
0.8536307071929728
0.5968171722621287
-0.03611560329934571
0.511243290107254
-0.5887727923359611
-0.7215366753308231
0.4063662850117365
0.566396562531954
0.1926150361022981
0.8021103700445161
0.926349437546385
-0.8359754437534819
0.04768458053839548
0.03361758426190364
-0.988461855469136
0.7586884188480759
0.4310176556701702
0.02930027694601992
-0.4038899641268187
-0.5321958103267378
-0.7649163660294535
-0.17639579000788835
0.6405841576277949
-0.43001889103001995
-0.3178783490501142
0.7904622592718681
-0.784224652479446
0.09480986109462704
-0.8269921798574309
-0.10182015620839457
0.016288013653499744
-0.4573434494852722
-0.7911380796344852
0.6935556490969086
0.04254190747077236
-0.43166136339363426
0.09213408078709483
-0.11261746916277077
0.48005132865242284
0.18851894547922726
-0.683021152622528
0.5104987000946878
-0.42463119665570553
0.8437092336366426
0.445104204365626
0.47629047735795965
0.6766373688182773
0.3203607799121761
-0.6861056282670286
0.6559414635715772
-0.5288727467586902
0.9855592883649835
0.5242851457739396
0.7876703525869371
-0.6142738211337493
-0.4963597059964906
-0.3679583368534773
0.6606226354177849
0.6924457036785681
0.2405696147794155
-0.6395103814393923
-0.13322139160424998
0.5399812966814106
-0.906056986317824
-0.51474752139245
-0.7974513961307433
-0.3785532957781418
-0.6200151336571575
-0.04845420216933181
-0.3075679971897049
-0.5509829569138506
0.4412000881913159
-0.6301531324966033
-0.6281191114232987
-0.8715345411743466
0.7452484857644909
-0.9935347612244763
-0.8290207084503303
-0.16672505065687832
-0.6193911803644783
0.8389768140181885
-0.8984893976007351
0.6753557202178913
-0.9758993723418322
0.4383061720398682
0.2290799538672159
0.73281101485637
0.2857717402463914
-0.07349281101424526
-0.8189228730898074
-0.988154787185464
0.8629498725359933
-0.5938500438428811
0.38534191048672445
0.6882238090650257
-0.5923781333358327
0.44999577643516053
0.36335528429750424
-0.21053846754379904
-0.219108574927926
0.4036989531579281
0.19425555979992684
-0.8022924907312382
-0.61001248341457
-0.019005252137625946
0.43940246949980627
0.743056100165197
-0.12973563109567557
-0.42587796912189196
-0.5129702966811172
0.7331752578985266
0.5731198649208455
0.18231909484860642
0.7466199001679803
-0.6873519334728753
-0.5537675215062187
0.8791911353689832
-0.02098839435767296
0.3254548455443431
-0.87415617598609
-0.7574288034213521
0.08234459794882595
0.14371516469328122
-0.14243562017529524
0.18956510687972367
0.8905189955951799
0.5653668087342767
-0.04793932504946445
0.6075843835577861
0.010414255009859697
-0.356692450519535
-0.09618624866693966
0.5569036314885449
-0.5332853412296302
-0.7827345525560021
0.5984955015149281
0.03529089687320588
-0.2317389663226998
0.4325894084538947
0.19784861185639507
0.9669633051616984
0.1430986558451366
-0.5620589399716391
-0.12937556627868485
-0.5534281893820895
0.3487932807145849
0.9807485673343074
0.28986150811434047
-0.6845787005849915
0.9277875346344452
-0.4465045814113539
-0.4594737190873715
-0.1540404133422686
0.8893759900875193
0.38529413451745526
-0.9978433755832513
0.6071194487006452
0.9250394184871924
-0.4044290459882244
-0.9008221849005872
0.600682527956848
-0.9484291458493949
-0.7328104924113947
-0.730014198589837
0.021511151678974747
-0.5722760752614591
0.03567277993602316
0.8904243331973097
-0.9178927400618719
0.42083111765467285
0.9820264810045796
0.6621009706331598
-0.410841840142126
-0.7929328789141505
-0.943659510924303
0.7878595404730173
-0.9421572050402912
-0.8713598467203459
0.7702577658224458
0.823202176232518
-0.5813500058855451
-0.29626130452836275
0.9251339937006232
-0.16776972516812444
0.24598049643244554
0.03525738570205361
-0.8524329532385323
0.7727807144957997
0.7843320745038471
0.4578532239557362
0.09500173168568675
0.7653212720046131
-0.8934629281913163
0.19970011526297227
0.19999911517686386
-0.4478753900187731
0.28130184736699326
0.08957127530584374
-0.8201935273930976
0.8362196984366002
0.09595204327809752
-0.671743977103703
-0.2013037768388026
0.6279972540595394
0.9456807974143344
0.19476941660485955
-0.37078307558480084
-0.7409295303850768
-0.6926849363163127
-0.6506514886397636
-0.9576985266055029
-0.6995671525579726
0.7725588494092681
-0.626021748345724
0.4608044591784377
-0.6571483889440324
-0.6733158602004348
-0.43746274160029786
0.07722366437277538
0.0619154762687752
-0.6415591722079061
0.09022679828177371
-0.700181982803969
-0.46870244245820447
0.5263926151036618
0.5447546372642662
0.7843278015703883
-0.14174690231516518
-0.9643003768173293
0.6586507214406456
-0.9283019497024546
-0.9251275674802675
-0.35877828935823713
-0.8356401150086592
0.867423161045874
0.49629418817493076
-0.7182615977908737
0.6283705258491343
0.042374002770023456
0.9681365614425509
0.07587777359408189
-0.15194361640220153
-0.9386513284318294
0.12662776299341863
0.295024584679041
0.3811169430530037
0.5980591858584248
-0.6722239485407946
0.27697108788585
-0.2589760812893772
-0.5663816299271354
0.2045698936071707
-0.7912235546572902
-0.8442752334179819
-0.1278165849238042
-0.5674579143523366
0.670574342468832
-0.7503564700586618
0.9390974262150754
-0.3129935857521117
0.8460703262309747
0.7884746825500066
0.5910448862443166
0.24624363665580135
0.46521567140381404
0.7299641920269243
-0.23100294095356821
-0.6287182632548016
0.19725217324951638
0.5007086346402836
-0.6121158039712393
0.5963558686640215
-0.6114648910096269
-0.634895398997409
-0.9296506324702721
0.6132140219913098
0.3007690770510998
-0.4082740950842858
0.5447047031100334
-0.6012672842410263
-0.8783039417210935
-0.00586836724370979
0.5415185553186102
0.3005140698262838
0.24208500446147108
0.564944924997206
0.16992404510758208
-0.30462951203837496
-0.05226383937937862
0.9671367041419452
0.5518838626117906
-0.3123546750845754
0.891813701555638
-0.009698106802531359
0.9163918321584161
0.7873684509988039
0.8665036952922005
-0.3403583601425376
0.7155861215867207
-0.31020181853790685
-0.7296358838878275
0.8556176172936756
-0.803681517455125
0.922134555227385
0.769315097890485
-0.16294319936331159
0.49828559339712064
0.017469258146815658
0.3027069003955267
0.21312404031249965
-0.36259708091833764
0.21382182367300628
0.8701634317111209
0.582238521617704
-0.8105504649322546
0.7027677819152411
0.45755741515140347
-0.7812281337540811
0.9441295903522746
-0.8061961210365065
0.6138252084645685
0.6704755102108526
-0.7195512484397468
0.43478265929406784
0.42625649976263097
0.30240747845877464
-0.9063405715303874
0.8186430634288552
-0.7277639085242424
0.743066541835615
-0.2363534294761727
0.7710250529088741
-0.3377504866795454
-0.45541421870038756
0.5061752540904367
-0.639677830896624
0.3737355639223803
0.9419771816532021
-0.49689995514547314
-0.6940032909045595
0.9973002420993058
-0.3513434776091354
0.9882376159211315
-0.8194769833469664
0.9039458793385304
-0.4057701654283181
-0.9752883147227307
0.8734434712862753
0.4733086158687035
0.845160417918199
-0.8575337858256201
-0.29814376180126356
-0.10067722352582904
0.6908415962767644
-0.509090346280136
-0.31338985606406816
0.7597445196297911
-0.8882998436079476
0.877603293139787
0.6418618218185801
0.8490492697988883
-0.5414524181880667
-0.41603062268994356
-0.909551581718514
-0.3759229278829449
-0.736624157602306
-0.15010056447649545
-0.606725605552497
-0.2884871124794218
-0.4389993802869089
-0.06204103284586904
0.5967686340548185
0.5035603484529588
-0.9071487344766536
0.8752701176079751
0.1970421797236391
0.06066638573585742
-0.4905105803216151
-0.3870897790923327
-0.8140084211641095
-0.2928695724130993
-0.7075218551881676
-0.7008255291313669
0.11202692773888337
0.008541706601142512
-0.3176323209666136
-0.18278899226547515
0.5716357516783173
0.049907001288554236
0.12132569438506799
-0.5600727182187143
0.6082938333594179
-0.020688622902614417
0.7342407430276827
-0.21686537514106752
-0.3869717389438432
-0.6004554852751163
-0.17444747126664517
0.2812555865674564
0.6998194085305743
-0.7466349842900653
0.7014871419067458
-0.2191962461080336
0.7844251662617658
-0.9564660374644065
-0.1431061421012656
-0.02209789899059699
-0.2987164357483244
0.1572056683653462
0.9624433427824192
0.12200688235121804
0.5241767830181464
-0.3968540375175353
-0.010487541332265786
-0.30501042910062526
-0.018781722037377362
-0.6023958727902222
0.22829072263184474
0.48533142010963926
-0.6804248101262337
0.13872482148800191
-0.8411614186400993
0.5187256380606766
-0.031759995114284845
0.7744026211742578
0.05886337993953239
-0.09312042677611677
-0.46878689169118487
0.7692577427611583
-0.7631108519545099
-0.3732097299614425
-0.9484297553834427
0.6732609447926063
0.13497753051973077
0.08041157921209331
0.43324121671005905
0.6377288946050289
0.15671746138586493
0.07739831093335861
-0.5961318497358328
-0.4648757556199357
0.11793960950960346
0.16958773355717457
-0.7339705154502102
0.03719877167913284
0.7629215172831003
-0.2566845323409075
0.336321424187055
-0.5534572624355505
-0.23348471430607165
0.005954051281300998
-0.4228831513096496
-0.9585744000769953
-0.5798961043006837
0.5742803878376278
-0.263264777014981
0.44056528209375284
0.7116758818188856
-0.935438077618472
-0.7006783267519944
-0.6601019159734061
0.23407337598114722
0.039400870173987725
-0.05958447608799729
-0.5480354479605258
-0.6442270163238829
0.6453690162094261
-0.6576204900267514
-0.5064561244069545
0.7314563103654823
0.9302013669670846
-0.528763948313434
0.6066457921608496
0.5129922398551781
-0.9331151368711219
-0.7749181259261115
0.6195314330983306
-0.021043172165740587
-0.4191443648060105
0.5740576396842544
-0.14027908723087845
0.3054495421793445
-0.7940341364243891
-0.3965625668135497
0.08319078476477602
0.34830568266372447
-0.3311586520448812
-0.1249595654871627
-0.01358849683726103
0.14407809788256767
-0.5482675971427291
-0.752178056249866
-0.05651077061764937
-0.2520563489251384
0.008758254278681894
-0.8132546974776376
-0.7712174793692015
-0.36756335935371115
0.18672994741744559
0.7792723850518133
0.3734973465579335
-0.7092540300000897
-0.7192073925383056
-0.9954440157111268
-0.6578266627078062
-0.15977710410456059
-0.6050226025848038
-0.7571802827435522
0.9342075654666506
0.8178314930963179
-0.4511516161658901
0.18279336597078438
0.7690613682710833
-0.21649406496967155
0.09694337700637333
-0.0037100893612448532
0.062347482049700184
-0.029096757524709773
-0.5355687560286057
-0.13833293774892066
-0.11530923552152214
-0.7772439344785663
-0.06238296550563244
-0.6907215165014817
-0.8080258536465065
0.9371506924075075
-0.15373161730410267
0.49902610417061455
-0.5623404563450883
0.463192520161677
-0.7012133172626396
-0.003458482404876222
-0.4141326989781552
-0.9811568936845265
-0.3037575684808879
-0.17480505971176785
-0.15258602241761862
0.9777154167974076
-0.6827816073830296
-0.9814359583248399
0.344394816644304
0.8588504347138555
-0.14046928843360368
0.016757861054973913
0.014496969337374583
-0.02120583444176043
0.4425730699676673
-0.8874255762050137
0.7837748935768437
0.06315828685265965
0.8970349756891097
-0.8990729750688721
0.5475426223099161
0.46220276981281727
-0.32644382633767605
0.20869057151906062
-0.86074691673136
-0.24357522344172478
0.9850124870538209
0.2800546315900406
-0.17206219133491807
0.5747207568215833
0.6664526050975084
0.6137081305846075
-0.2102531165593063
-0.17019276958636326
0.569851050175861
-0.1521400128765217
-0.9783604096133528
0.6495090149364998
-0.38278754694217243
-0.7974152375255523
0.8839452086355843
0.7559060013999613
0.8583806345736443
0.6215975802021062
0.5646488770297531
-0.6954625910280401
0.8469596205844516
-0.0977252615256742
-0.7303619750137715
-0.8899241933904697
0.48290541452505487
-0.6346740445769179
-0.17667660887737813
0.6102340367725484
-0.3425023499367188
0.47688537903192996
-0.6298586662136026
-0.10310069216072582
-0.8067307410645599
0.44770045344391485
0.9940544986966889
-0.3608390983808234
-0.017319204283327068
-0.4087657661103635
-0.4618772078396691
-0.3569056631195539
0.8233639527813832
0.3554473111281385
-0.6411572056163608
-0.3662606230879867
0.0016248243113222267
0.7546686158459756
-0.02930945004479867
0.2673560817237248
0.06022532241671143
0.49872361845616897
-0.5540630220329005
0.5684429578320209
0.2484368227856088
0.14021544037543382
0.87918704757452
-0.5831836156880634
-0.4998112828812132
0.8101221052694672
0.17202616337133317
0.5079883168447836
-0.8610534863079806
0.6318991214600091
-0.8130215502549398
-0.2747559140238659
0.4647098509411665
-0.06420708762438158
0.07321784869849143
0.5046918403119833
-0.0990440387755163
0.02735174504803055
0.27469089743990094
0.5408473026755594
0.9852726131008699
